month,latitude,longitude,count
01,-43.5,146.6,1
01,-43.3,146.3,1
01,-43.3,146.4,8
01,-43.3,146.5,1
01,-43.3,146.9,1
01,-43.2,145.9,4
01,-43.2,146.0,17
01,-43.2,146.1,21
01,-43.2,146.4,5
01,-43.2,146.5,16
01,-43.2,146.7,7
01,-43.2,146.8,2
01,-43.2,146.9,10
01,-43.2,147.7,1
01,-43.2,147.9,3
01,-43.2,148.0,1
01,-43.1,145.8,18
01,-43.1,145.9,19
01,-43.1,146.0,25
01,-43.1,146.1,9
01,-43.1,146.2,23
01,-43.1,146.4,14
01,-43.1,146.5,46
01,-43.1,146.6,21
01,-43.1,146.7,45
01,-43.1,146.8,26
01,-43.1,146.9,25
01,-43.1,147.0,3
01,-43.1,147.7,2
01,-43.1,148.0,1
01,-43.0,145.6,1
01,-43.0,145.8,17
01,-43.0,146.4,7
01,-43.0,146.5,3
01,-43.0,146.7,10
01,-43.0,146.8,29
01,-43.0,146.9,23
01,-43.0,147.8,2
01,-43.0,147.9,58
01,-42.9,145.6,7
01,-42.9,145.7,2
01,-42.9,145.8,8
01,-42.9,146.3,2
01,-42.9,146.4,1
01,-42.9,147.7,13
01,-42.9,147.8,13
01,-42.9,147.9,24
01,-42.9,148.0,13
01,-42.8,145.6,26
01,-42.8,145.7,3
01,-42.8,145.8,2
01,-42.8,146.2,15
01,-42.8,146.9,28
01,-42.8,147.0,5
01,-42.8,147.1,7
01,-42.8,147.2,2
01,-42.8,147.6,1
01,-42.8,147.7,74
01,-42.8,147.8,26
01,-42.7,145.5,39
01,-42.7,145.6,13
01,-42.7,146.3,3
01,-42.7,146.4,7
01,-42.7,146.5,5
01,-42.7,146.8,13
01,-42.7,146.9,4
01,-42.7,147.0,35
01,-42.7,147.1,105
01,-42.7,147.2,43
01,-42.7,147.3,6
01,-42.7,147.4,3
01,-42.6,145.5,2
01,-42.6,146.3,27
01,-42.6,146.4,28
01,-42.6,146.6,12
01,-42.6,146.7,50
01,-42.6,146.8,55
01,-42.6,147.0,8
01,-42.6,147.1,20
01,-42.6,147.6,11
01,-42.6,147.7,4
01,-42.6,147.8,8
01,-42.5,145.3,4
01,-42.5,145.9,3
01,-42.5,146.3,78
01,-42.5,146.4,17
01,-42.5,146.6,46
01,-42.5,146.7,14
01,-42.4,146.2,1
01,-42.4,146.3,13
01,-42.4,146.5,7
01,-42.4,146.6,9
01,-42.4,147.7,2
01,-42.3,145.7,2
01,-42.3,146.4,1
01,-42.3,146.5,1
01,-42.3,146.9,3
01,-42.2,145.3,5
01,-42.2,146.8,60
01,-42.2,146.9,14
01,-42.2,147.0,2
01,-42.2,147.1,19
01,-42.1,145.7,2
01,-42.1,146.5,24
01,-42.1,146.6,53
01,-42.1,146.7,47
01,-42.1,146.8,52
01,-42.1,147.1,42
01,-42.0,146.4,2
01,-42.0,146.5,133
01,-42.0,146.6,106
01,-42.0,146.7,79
01,-42.0,146.8,2
01,-42.0,148.2,7
01,-42.0,148.3,16
01,-41.9,145.2,7
01,-41.9,145.3,10
01,-41.9,145.6,4
01,-41.9,145.7,2
01,-41.9,146.2,3
01,-41.9,146.4,2
01,-41.9,146.5,61
01,-41.9,146.6,51
01,-41.9,147.1,5
01,-41.9,147.2,12
01,-41.9,148.1,1
01,-41.9,148.2,2
01,-41.9,148.3,27
01,-41.8,145.1,4
01,-41.8,145.2,4
01,-41.8,145.3,28
01,-41.8,145.4,3
01,-41.8,146.1,2
01,-41.8,146.2,5
01,-41.8,147.1,3
01,-41.8,147.2,3
01,-41.8,147.3,4
01,-41.8,147.4,1
01,-41.7,145.0,4
01,-41.7,145.4,4
01,-41.7,145.5,5
01,-41.7,145.6,4
01,-41.7,145.7,4
01,-41.7,146.1,22
01,-41.7,146.2,32
01,-41.7,146.3,42
01,-41.7,146.4,8
01,-41.7,147.8,9
01,-41.7,148.0,52
01,-41.7,148.1,14
01,-41.6,145.0,2
01,-41.6,145.6,2
01,-41.6,145.7,4
01,-41.6,145.8,1
01,-41.6,146.0,1
01,-41.6,146.1,13
01,-41.6,146.2,31
01,-41.6,146.3,23
01,-41.6,146.4,3
01,-41.6,146.7,2
01,-41.6,147.1,2
01,-41.6,147.3,1
01,-41.6,147.8,71
01,-41.6,147.9,26
01,-41.6,148.0,24
01,-41.6,148.1,3
01,-41.6,148.2,2
01,-41.5,146.3,1
01,-41.5,147.0,2
01,-41.5,147.4,2
01,-41.5,147.8,5
01,-41.5,147.9,9
01,-41.5,148.0,4
01,-41.4,144.9,3
01,-41.4,145.0,14
01,-41.4,145.1,4
01,-41.4,146.2,1
01,-41.4,146.8,2
01,-41.4,146.9,3
01,-41.4,147.2,4
01,-41.4,147.3,17
01,-41.4,147.4,2
01,-41.4,147.7,16
01,-41.4,147.8,12
01,-41.4,147.9,7
01,-41.4,148.0,19
01,-41.4,148.1,2
01,-41.4,148.2,1
01,-41.3,145.0,21
01,-41.3,145.1,17
01,-41.3,145.2,1
01,-41.3,147.2,10
01,-41.3,147.3,7
01,-41.3,147.4,1
01,-41.3,147.5,3
01,-41.3,148.1,12
01,-41.3,148.2,10
01,-41.2,144.7,2
01,-41.2,144.8,9
01,-41.2,144.9,2
01,-41.2,145.0,15
01,-41.2,145.1,34
01,-41.2,145.2,4
01,-41.2,146.7,14
01,-41.2,146.8,7
01,-41.1,144.7,12
01,-41.1,144.8,31
01,-41.1,144.9,9
01,-41.1,145.1,8
01,-41.1,145.2,10
01,-41.1,145.3,1
01,-41.1,146.8,1
01,-41.1,147.0,1
01,-41.1,147.2,4
01,-41.1,147.6,2
01,-41.0,144.9,6
01,-41.0,145.0,14
01,-41.0,145.2,5
01,-41.0,145.3,46
01,-41.0,145.4,10
01,-41.0,147.2,20
01,-41.0,147.3,5
01,-41.0,147.6,1
01,-40.9,145.4,43
01,-40.9,145.5,4
01,-40.9,147.6,4
01,-40.9,147.7,8
01,-40.9,148.1,3
01,-40.8,144.8,18
01,-40.8,144.9,6
01,-40.8,147.6,1
01,-40.8,147.7,2
01,-40.8,148.1,3
01,-40.7,144.9,1
01,-40.7,145.0,1
01,-40.5,144.7,1
01,-40.5,144.8,2
01,-40.1,147.9,1
01,-40.1,148.0,22
01,-40.1,148.1,35
01,-40.0,147.9,1
01,-40.0,148.0,21
01,-40.0,148.1,14
01,-39.9,148.0,8
01,-39.9,148.1,9
01,-39.7,144.0,30
01,-39.7,144.1,8
01,-38.6,143.5,2
01,-38.4,145.4,2
01,-38.4,146.2,45
01,-38.4,146.3,9
01,-38.4,147.1,1
01,-38.4,147.2,1
01,-38.3,142.7,14
01,-38.3,143.2,1
01,-38.3,145.4,1
01,-38.3,146.2,13
01,-38.3,146.3,31
01,-38.3,146.8,9
01,-38.3,146.9,16
01,-38.3,147.0,4
01,-38.2,141.3,8
01,-38.2,141.7,3
01,-38.2,141.8,10
01,-38.2,144.1,1
01,-38.2,144.2,1
01,-38.2,144.4,1
01,-38.2,146.8,19
01,-38.2,146.9,39
01,-38.2,147.0,22
01,-38.2,147.2,3
01,-38.1,141.2,8
01,-38.1,141.3,58
01,-38.1,141.4,17
01,-38.1,141.8,14
01,-38.1,141.9,51
01,-38.1,142.0,6
01,-38.1,145.2,3
01,-38.1,146.2,3
01,-38.1,146.3,26
01,-38.1,146.4,17
01,-38.0,141.2,10
01,-38.0,141.3,17
01,-38.0,141.8,14
01,-38.0,141.9,11
01,-38.0,143.0,2
01,-38.0,143.6,1
01,-38.0,145.2,2
01,-38.0,146.3,63
01,-38.0,146.4,13
01,-38.0,146.5,2
01,-38.0,146.6,3
01,-38.0,146.7,3
01,-37.9,141.4,1
01,-37.9,141.5,9
01,-37.9,142.7,1
01,-37.9,144.2,21
01,-37.9,145.3,3
01,-37.9,145.7,2
01,-37.9,145.8,5
01,-37.9,146.4,15
01,-37.9,146.5,67
01,-37.9,146.6,35
01,-37.9,146.7,10
01,-37.9,146.8,1
01,-37.8,140.8,1
01,-37.8,143.4,1
01,-37.8,144.1,6
01,-37.8,144.2,5
01,-37.8,144.3,7
01,-37.8,144.8,1
01,-37.8,146.4,68
01,-37.8,146.5,139
01,-37.8,146.6,67
01,-37.8,146.7,15
01,-37.8,146.8,9
01,-37.8,147.3,9
01,-37.8,148.2,2
01,-37.8,148.3,1
01,-37.8,148.7,22
01,-37.8,148.8,24
01,-37.8,148.9,10
01,-37.8,149.0,7
01,-37.8,149.1,11
01,-37.8,149.2,5
01,-37.7,140.4,3
01,-37.7,140.5,3
01,-37.7,140.6,1
01,-37.7,141.2,1
01,-37.7,143.6,1
01,-37.7,144.1,9
01,-37.7,144.2,3
01,-37.7,144.6,1
01,-37.7,146.2,4
01,-37.7,146.3,19
01,-37.7,146.4,71
01,-37.7,146.5,72
01,-37.7,146.6,8
01,-37.7,146.8,3
01,-37.7,147.2,5
01,-37.7,147.3,11
01,-37.7,147.5,1
01,-37.7,147.6,26
01,-37.7,147.7,41
01,-37.7,147.8,44
01,-37.7,147.9,9
01,-37.7,148.0,5
01,-37.7,148.1,18
01,-37.7,148.2,9
01,-37.7,148.3,31
01,-37.7,148.4,2
01,-37.7,148.5,6
01,-37.7,148.6,37
01,-37.7,148.7,38
01,-37.7,148.8,56
01,-37.7,148.9,50
01,-37.7,149.0,55
01,-37.7,149.1,70
01,-37.7,149.2,64
01,-37.7,149.3,20
01,-37.7,149.4,8
01,-37.7,149.5,7
01,-37.6,141.2,11
01,-37.6,141.3,12
01,-37.6,142.2,1
01,-37.6,142.3,6
01,-37.6,143.5,3
01,-37.6,144.7,2
01,-37.6,145.7,1
01,-37.6,146.8,15
01,-37.6,146.9,23
01,-37.6,147.5,77
01,-37.6,147.6,196
01,-37.6,147.7,80
01,-37.6,147.8,107
01,-37.6,147.9,34
01,-37.6,148.0,10
01,-37.6,148.1,1
01,-37.6,148.2,22
01,-37.6,148.3,1
01,-37.6,148.5,3
01,-37.6,148.6,41
01,-37.6,148.7,47
01,-37.6,148.8,80
01,-37.6,148.9,43
01,-37.6,149.0,71
01,-37.6,149.1,26
01,-37.6,149.2,37
01,-37.6,149.3,61
01,-37.6,149.4,13
01,-37.6,149.5,8
01,-37.5,142.4,23
01,-37.5,142.5,2
01,-37.5,143.5,5
01,-37.5,145.3,4
01,-37.5,145.4,8
01,-37.5,146.1,2
01,-37.5,146.8,9
01,-37.5,146.9,30
01,-37.5,147.2,1
01,-37.5,147.3,3
01,-37.5,147.4,76
01,-37.5,147.5,74
01,-37.5,147.6,46
01,-37.5,147.7,61
01,-37.5,147.8,84
01,-37.5,147.9,9
01,-37.5,148.0,21
01,-37.5,148.1,51
01,-37.5,148.4,2
01,-37.5,148.5,22
01,-37.5,148.6,32
01,-37.5,148.7,2
01,-37.5,148.8,55
01,-37.5,148.9,67
01,-37.5,149.1,11
01,-37.5,149.2,66
01,-37.5,149.3,79
01,-37.5,149.4,81
01,-37.5,149.5,19
01,-37.5,149.6,8
01,-37.5,149.7,23
01,-37.5,149.8,31
01,-37.4,140.5,1
01,-37.4,140.6,1
01,-37.4,142.4,32
01,-37.4,142.5,44
01,-37.4,142.6,3
01,-37.4,142.7,2
01,-37.4,142.8,8
01,-37.4,143.6,5
01,-37.4,144.9,2
01,-37.4,145.4,5
01,-37.4,145.9,2
01,-37.4,147.2,1
01,-37.4,147.4,38
01,-37.4,147.5,99
01,-37.4,147.6,145
01,-37.4,147.7,182
01,-37.4,147.8,25
01,-37.4,147.9,10
01,-37.4,148.0,2
01,-37.4,148.1,15
01,-37.4,148.2,25
01,-37.4,148.3,1
01,-37.4,148.4,3
01,-37.4,148.5,26
01,-37.4,148.7,6
01,-37.4,148.8,3
01,-37.4,148.9,60
01,-37.4,149.0,61
01,-37.4,149.1,62
01,-37.4,149.2,83
01,-37.4,149.3,79
01,-37.4,149.4,114
01,-37.4,149.5,120
01,-37.4,149.6,69
01,-37.4,149.7,77
01,-37.4,149.8,101
01,-37.4,149.9,43
01,-37.3,140.2,2
01,-37.3,140.4,1
01,-37.3,142.3,3
01,-37.3,142.4,54
01,-37.3,142.5,101
01,-37.3,142.6,24
01,-37.3,142.8,9
01,-37.3,142.9,1
01,-37.3,144.5,1
01,-37.3,144.7,1
01,-37.3,145.4,7
01,-37.3,145.5,2
01,-37.3,146.2,11
01,-37.3,146.5,6
01,-37.3,146.6,1
01,-37.3,147.3,59
01,-37.3,147.4,106
01,-37.3,147.5,50
01,-37.3,147.6,28
01,-37.3,147.7,30
01,-37.3,147.8,1
01,-37.3,147.9,8
01,-37.3,148.0,46
01,-37.3,148.1,31
01,-37.3,148.2,8
01,-37.3,148.5,41
01,-37.3,148.6,2
01,-37.3,148.7,29
01,-37.3,148.8,3
01,-37.3,148.9,22
01,-37.3,149.0,92
01,-37.3,149.1,92
01,-37.3,149.2,83
01,-37.3,149.3,64
01,-37.3,149.4,40
01,-37.3,149.5,91
01,-37.3,149.6,18
01,-37.3,149.7,47
01,-37.3,149.8,82
01,-37.3,149.9,76
01,-37.3,150.0,2
01,-37.2,139.9,2
01,-37.2,140.4,5
01,-37.2,140.5,27
01,-37.2,141.1,2
01,-37.2,141.3,3
01,-37.2,142.0,2
01,-37.2,142.1,21
01,-37.2,142.3,20
01,-37.2,142.4,99
01,-37.2,142.5,98
01,-37.2,142.6,29
01,-37.2,142.8,4
01,-37.2,144.2,2
01,-37.2,146.3,15
01,-37.2,146.4,36
01,-37.2,146.5,76
01,-37.2,146.6,16
01,-37.2,147.0,32
01,-37.2,147.1,61
01,-37.2,147.2,6
01,-37.2,147.3,1
01,-37.2,147.4,16
01,-37.2,147.5,7
01,-37.2,147.7,1
01,-37.2,147.9,4
01,-37.2,148.0,6
01,-37.2,148.1,60
01,-37.2,148.2,26
01,-37.2,148.4,41
01,-37.2,148.5,1
01,-37.2,148.6,2
01,-37.2,148.7,5
01,-37.2,149.0,76
01,-37.2,149.1,88
01,-37.2,149.2,61
01,-37.2,149.3,48
01,-37.2,149.4,38
01,-37.2,149.5,96
01,-37.2,149.6,118
01,-37.2,149.7,30
01,-37.2,149.8,68
01,-37.2,149.9,91
01,-37.2,150.0,89
01,-37.1,141.4,14
01,-37.1,141.5,10
01,-37.1,142.0,12
01,-37.1,142.1,19
01,-37.1,142.2,2
01,-37.1,142.3,93
01,-37.1,142.4,167
01,-37.1,142.5,79
01,-37.1,142.6,17
01,-37.1,142.7,8
01,-37.1,142.8,14
01,-37.1,146.3,10
01,-37.1,146.4,3
01,-37.1,146.5,3
01,-37.1,147.0,77
01,-37.1,147.1,62
01,-37.1,147.2,46
01,-37.1,147.3,76
01,-37.1,147.4,47
01,-37.1,147.5,56
01,-37.1,147.6,22
01,-37.1,147.7,4
01,-37.1,147.8,9
01,-37.1,147.9,71
01,-37.1,148.0,41
01,-37.1,148.1,83
01,-37.1,148.2,23
01,-37.1,148.3,67
01,-37.1,148.4,19
01,-37.1,148.5,17
01,-37.1,148.6,17
01,-37.1,149.0,6
01,-37.1,149.1,3
01,-37.1,149.2,4
01,-37.1,149.3,37
01,-37.1,149.4,47
01,-37.1,149.5,66
01,-37.1,149.6,86
01,-37.1,149.7,17
01,-37.1,149.8,69
01,-37.1,149.9,56
01,-37.1,150.0,20
01,-37.0,139.8,2
01,-37.0,141.5,1
01,-37.0,142.3,22
01,-37.0,142.4,95
01,-37.0,142.5,22
01,-37.0,143.2,4
01,-37.0,144.5,1
01,-37.0,144.7,1
01,-37.0,144.8,1
01,-37.0,145.5,1
01,-37.0,146.6,11
01,-37.0,146.7,22
01,-37.0,146.8,27
01,-37.0,146.9,50
01,-37.0,147.0,67
01,-37.0,147.1,174
01,-37.0,147.2,117
01,-37.0,147.3,208
01,-37.0,147.4,260
01,-37.0,147.5,58
01,-37.0,147.6,11
01,-37.0,147.8,13
01,-37.0,147.9,70
01,-37.0,148.0,32
01,-37.0,148.1,38
01,-37.0,148.2,61
01,-37.0,148.3,38
01,-37.0,149.3,24
01,-37.0,149.4,104
01,-37.0,149.5,60
01,-37.0,149.6,1
01,-37.0,149.7,6
01,-36.9,140.1,2
01,-36.9,140.2,1
01,-36.9,141.4,4
01,-36.9,141.5,1
01,-36.9,141.6,1
01,-36.9,142.4,12
01,-36.9,142.5,34
01,-36.9,146.2,2
01,-36.9,146.3,13
01,-36.9,146.6,32
01,-36.9,146.7,88
01,-36.9,146.8,82
01,-36.9,146.9,48
01,-36.9,147.0,70
01,-36.9,147.1,250
01,-36.9,147.2,125
01,-36.9,147.3,93
01,-36.9,147.4,140
01,-36.9,147.5,141
01,-36.9,147.6,82
01,-36.9,147.7,68
01,-36.9,147.8,54
01,-36.9,147.9,56
01,-36.9,148.0,40
01,-36.9,148.1,8
01,-36.9,148.2,3
01,-36.9,148.3,7
01,-36.9,148.4,10
01,-36.9,148.6,7
01,-36.9,149.4,9
01,-36.9,149.5,52
01,-36.9,149.6,3
01,-36.9,149.8,1
01,-36.8,141.0,1
01,-36.8,141.4,1
01,-36.8,141.5,1
01,-36.8,141.6,1
01,-36.8,141.8,1
01,-36.8,142.0,2
01,-36.8,142.3,2
01,-36.8,142.4,1
01,-36.8,142.5,4
01,-36.8,145.6,5
01,-36.8,146.2,163
01,-36.8,146.3,170
01,-36.8,146.4,17
01,-36.8,146.6,10
01,-36.8,146.7,135
01,-36.8,146.8,161
01,-36.8,146.9,55
01,-36.8,147.0,11
01,-36.8,147.1,98
01,-36.8,147.2,136
01,-36.8,147.3,116
01,-36.8,147.4,94
01,-36.8,147.5,91
01,-36.8,147.6,128
01,-36.8,147.7,102
01,-36.8,147.8,132
01,-36.8,147.9,65
01,-36.8,148.0,55
01,-36.8,148.1,18
01,-36.8,148.2,1
01,-36.8,148.3,2
01,-36.8,148.4,4
01,-36.8,148.5,2
01,-36.8,149.0,2
01,-36.8,149.4,72
01,-36.8,149.5,53
01,-36.7,140.2,7
01,-36.7,141.1,3
01,-36.7,141.2,12
01,-36.7,144.3,2
01,-36.7,145.7,4
01,-36.7,145.8,9
01,-36.7,146.2,105
01,-36.7,146.3,69
01,-36.7,146.6,27
01,-36.7,146.7,147
01,-36.7,146.8,133
01,-36.7,146.9,29
01,-36.7,147.1,4
01,-36.7,147.2,73
01,-36.7,147.3,150
01,-36.7,147.4,138
01,-36.7,147.5,109
01,-36.7,147.6,77
01,-36.7,147.7,124
01,-36.7,147.8,161
01,-36.7,147.9,141
01,-36.7,148.0,55
01,-36.7,148.1,37
01,-36.7,148.2,37
01,-36.7,148.3,8
01,-36.7,148.5,6
01,-36.7,148.6,5
01,-36.7,148.7,3
01,-36.7,148.8,2
01,-36.7,149.4,25
01,-36.7,149.5,3
01,-36.7,149.7,3
01,-36.6,140.1,4
01,-36.6,140.2,1
01,-36.6,141.0,2
01,-36.6,141.1,8
01,-36.6,141.2,8
01,-36.6,143.1,3
01,-36.6,144.3,2
01,-36.6,146.3,3
01,-36.6,146.6,25
01,-36.6,146.7,16
01,-36.6,146.8,49
01,-36.6,146.9,1
01,-36.6,147.2,1
01,-36.6,147.3,60
01,-36.6,147.4,69
01,-36.6,147.5,90
01,-36.6,147.6,14
01,-36.6,147.7,108
01,-36.6,147.8,215
01,-36.6,147.9,144
01,-36.6,148.0,91
01,-36.6,148.1,64
01,-36.6,148.2,63
01,-36.6,148.3,17
01,-36.6,148.4,2
01,-36.6,148.5,6
01,-36.6,148.6,6
01,-36.6,148.7,1
01,-36.6,148.8,1
01,-36.6,149.5,18
01,-36.6,149.7,6
01,-36.6,149.9,28
01,-36.5,141.0,2
01,-36.5,141.1,6
01,-36.5,141.4,1
01,-36.5,143.7,1
01,-36.5,147.4,60
01,-36.5,147.5,24
01,-36.5,147.6,58
01,-36.5,147.7,192
01,-36.5,147.8,196
01,-36.5,147.9,95
01,-36.5,148.0,126
01,-36.5,148.1,102
01,-36.5,148.2,96
01,-36.5,148.3,26
01,-36.5,148.4,53
01,-36.5,148.5,9
01,-36.5,148.7,6
01,-36.5,149.0,6
01,-36.5,149.5,57
01,-36.5,149.6,45
01,-36.5,149.7,2
01,-36.5,149.8,2
01,-36.5,149.9,35
01,-36.5,150.0,27
01,-36.4,139.8,2
01,-36.4,140.4,1
01,-36.4,142.7,1
01,-36.4,144.7,2
01,-36.4,146.7,46
01,-36.4,146.8,60
01,-36.4,147.4,5
01,-36.4,147.5,51
01,-36.4,147.6,57
01,-36.4,147.7,140
01,-36.4,147.8,100
01,-36.4,147.9,126
01,-36.4,148.0,97
01,-36.4,148.1,67
01,-36.4,148.2,53
01,-36.4,148.3,17
01,-36.4,148.4,73
01,-36.4,148.5,84
01,-36.4,148.6,11
01,-36.4,148.7,6
01,-36.4,149.4,5
01,-36.4,149.5,42
01,-36.4,149.6,76
01,-36.4,149.7,1
01,-36.4,149.9,3
01,-36.4,150.0,2
01,-36.3,141.4,1
01,-36.3,143.4,1
01,-36.3,144.6,1
01,-36.3,146.6,35
01,-36.3,146.7,22
01,-36.3,146.8,22
01,-36.3,147.1,1
01,-36.3,147.2,1
01,-36.3,147.3,8
01,-36.3,147.5,9
01,-36.3,147.6,5
01,-36.3,147.7,65
01,-36.3,147.8,25
01,-36.3,147.9,16
01,-36.3,148.0,60
01,-36.3,148.1,37
01,-36.3,148.2,96
01,-36.3,148.3,88
01,-36.3,148.4,76
01,-36.3,148.5,84
01,-36.3,148.6,28
01,-36.3,148.7,1
01,-36.3,149.3,27
01,-36.3,149.4,28
01,-36.3,149.5,45
01,-36.3,149.6,21
01,-36.3,149.9,16
01,-36.3,150.0,35
01,-36.2,146.6,2
01,-36.2,146.7,60
01,-36.2,146.8,2
01,-36.2,147.6,7
01,-36.2,147.7,11
01,-36.2,148.0,3
01,-36.2,148.1,5
01,-36.2,148.2,151
01,-36.2,148.3,65
01,-36.2,148.4,128
01,-36.2,148.5,78
01,-36.2,148.6,1
01,-36.2,149.4,45
01,-36.2,149.5,41
01,-36.2,149.6,5
01,-36.2,150.0,22
01,-36.1,136.7,4
01,-36.1,140.4,3
01,-36.1,140.5,13
01,-36.1,140.6,5
01,-36.1,146.5,3
01,-36.1,147.3,1
01,-36.1,147.6,45
01,-36.1,147.8,10
01,-36.1,147.9,89
01,-36.1,148.0,8
01,-36.1,148.1,6
01,-36.1,148.2,80
01,-36.1,148.3,163
01,-36.1,148.4,120
01,-36.1,148.5,94
01,-36.1,148.6,40
01,-36.1,149.0,3
01,-36.1,149.1,5
01,-36.1,149.3,2
01,-36.1,149.4,50
01,-36.1,149.5,70
01,-36.1,149.6,17
01,-36.1,149.7,7
01,-36.1,149.8,10
01,-36.1,150.0,10
01,-36.1,150.1,2
01,-36.0,136.7,43
01,-36.0,136.8,64
01,-36.0,136.9,17
01,-36.0,137.0,11
01,-36.0,137.1,2
01,-36.0,137.2,6
01,-36.0,139.6,2
01,-36.0,140.3,6
01,-36.0,140.4,2
01,-36.0,140.5,11
01,-36.0,140.6,8
01,-36.0,140.9,1
01,-36.0,142.4,1
01,-36.0,142.5,3
01,-36.0,144.9,2
01,-36.0,147.8,47
01,-36.0,147.9,19
01,-36.0,148.0,1
01,-36.0,148.1,16
01,-36.0,148.2,69
01,-36.0,148.3,263
01,-36.0,148.4,157
01,-36.0,148.5,40
01,-36.0,148.6,55
01,-36.0,148.9,3
01,-36.0,149.3,43
01,-36.0,149.4,53
01,-36.0,149.5,71
01,-36.0,149.6,57
01,-36.0,149.7,101
01,-36.0,149.8,40
01,-36.0,149.9,17
01,-36.0,150.0,15
01,-36.0,150.1,7
01,-35.9,136.5,1
01,-35.9,136.6,69
01,-35.9,136.7,90
01,-35.9,136.8,59
01,-35.9,136.9,2
01,-35.9,137.0,7
01,-35.9,137.1,9
01,-35.9,137.2,3
01,-35.9,137.3,1
01,-35.9,137.5,5
01,-35.9,140.2,3
01,-35.9,140.3,90
01,-35.9,140.4,14
01,-35.9,140.5,40
01,-35.9,140.6,14
01,-35.9,140.7,11
01,-35.9,140.9,11
01,-35.9,141.0,11
01,-35.9,141.1,5
01,-35.9,145.2,1
01,-35.9,147.1,1
01,-35.9,147.4,2
01,-35.9,147.5,101
01,-35.9,147.6,39
01,-35.9,147.7,42
01,-35.9,147.8,1
01,-35.9,147.9,45
01,-35.9,148.0,36
01,-35.9,148.1,43
01,-35.9,148.2,30
01,-35.9,148.3,104
01,-35.9,148.4,142
01,-35.9,148.5,96
01,-35.9,148.6,72
01,-35.9,148.7,57
01,-35.9,148.8,32
01,-35.9,148.9,85
01,-35.9,149.0,13
01,-35.9,149.4,26
01,-35.9,149.5,36
01,-35.9,149.6,20
01,-35.9,149.7,77
01,-35.9,149.8,25
01,-35.9,149.9,17
01,-35.9,150.0,12
01,-35.9,150.1,16
01,-35.9,150.2,1
01,-35.8,136.6,67
01,-35.8,136.7,74
01,-35.8,136.8,46
01,-35.8,136.9,19
01,-35.8,137.0,5
01,-35.8,137.1,3
01,-35.8,137.2,10
01,-35.8,137.3,15
01,-35.8,137.4,8
01,-35.8,137.6,1
01,-35.8,137.9,18
01,-35.8,140.2,10
01,-35.8,140.3,63
01,-35.8,140.4,7
01,-35.8,140.5,13
01,-35.8,140.6,34
01,-35.8,140.7,23
01,-35.8,140.8,1
01,-35.8,140.9,5
01,-35.8,141.0,55
01,-35.8,141.1,19
01,-35.8,141.2,4
01,-35.8,141.3,19
01,-35.8,141.4,1
01,-35.8,141.8,3
01,-35.8,141.9,7
01,-35.8,144.3,4
01,-35.8,144.4,1
01,-35.8,145.2,1
01,-35.8,147.4,9
01,-35.8,147.5,56
01,-35.8,147.6,57
01,-35.8,147.7,12
01,-35.8,148.0,23
01,-35.8,148.1,2
01,-35.8,148.2,19
01,-35.8,148.3,108
01,-35.8,148.4,86
01,-35.8,148.5,81
01,-35.8,148.6,106
01,-35.8,148.7,110
01,-35.8,148.8,54
01,-35.8,148.9,89
01,-35.8,149.0,118
01,-35.8,149.1,65
01,-35.8,149.6,4
01,-35.8,149.7,29
01,-35.8,149.8,38
01,-35.8,149.9,21
01,-35.8,150.0,39
01,-35.8,150.1,10
01,-35.7,136.7,7
01,-35.7,136.8,13
01,-35.7,137.0,1
01,-35.7,137.1,10
01,-35.7,137.2,12
01,-35.7,137.3,31
01,-35.7,137.4,7
01,-35.7,140.2,23
01,-35.7,140.3,20
01,-35.7,140.4,42
01,-35.7,140.5,5
01,-35.7,140.6,3
01,-35.7,140.7,13
01,-35.7,141.9,26
01,-35.7,142.0,37
01,-35.7,142.1,7
01,-35.7,143.3,1
01,-35.7,145.5,1
01,-35.7,148.2,62
01,-35.7,148.3,40
01,-35.7,148.4,141
01,-35.7,148.5,97
01,-35.7,148.6,22
01,-35.7,148.7,39
01,-35.7,148.8,192
01,-35.7,148.9,251
01,-35.7,149.0,120
01,-35.7,149.1,54
01,-35.7,149.5,1
01,-35.7,149.8,15
01,-35.7,149.9,64
01,-35.7,150.0,16
01,-35.7,150.2,7
01,-35.6,137.2,3
01,-35.6,139.6,5
01,-35.6,139.7,2
01,-35.6,139.8,1
01,-35.6,140.3,6
01,-35.6,140.4,5
01,-35.6,140.5,1
01,-35.6,140.6,4
01,-35.6,140.7,3
01,-35.6,140.8,1
01,-35.6,141.9,3
01,-35.6,142.0,49
01,-35.6,142.1,13
01,-35.6,145.5,1
01,-35.6,147.6,33
01,-35.6,147.7,53
01,-35.6,147.9,7
01,-35.6,148.1,10
01,-35.6,148.2,55
01,-35.6,148.3,26
01,-35.6,148.4,56
01,-35.6,148.5,34
01,-35.6,148.6,19
01,-35.6,148.7,130
01,-35.6,148.8,115
01,-35.6,148.9,163
01,-35.6,149.0,69
01,-35.6,149.1,16
01,-35.6,149.8,1
01,-35.6,149.9,34
01,-35.6,150.2,7
01,-35.5,139.6,2
01,-35.5,139.7,2
01,-35.5,140.5,2
01,-35.5,141.9,5
01,-35.5,142.1,1
01,-35.5,144.0,4
01,-35.5,147.6,33
01,-35.5,147.7,6
01,-35.5,147.9,6
01,-35.5,148.0,51
01,-35.5,148.1,68
01,-35.5,148.2,4
01,-35.5,148.3,48
01,-35.5,148.4,41
01,-35.5,148.5,23
01,-35.5,148.6,66
01,-35.5,148.7,88
01,-35.5,148.8,44
01,-35.5,148.9,47
01,-35.5,149.0,63
01,-35.5,149.1,4
01,-35.5,149.9,2
01,-35.5,150.0,18
01,-35.5,150.2,4
01,-35.5,150.3,1
01,-35.4,138.8,2
01,-35.4,141.7,1
01,-35.4,141.8,25
01,-35.4,141.9,41
01,-35.4,142.0,11
01,-35.4,146.8,2
01,-35.4,146.9,1
01,-35.4,147.9,12
01,-35.4,148.0,111
01,-35.4,148.1,34
01,-35.4,148.2,49
01,-35.4,148.3,7
01,-35.4,148.4,17
01,-35.4,148.6,30
01,-35.4,148.7,97
01,-35.4,148.8,101
01,-35.4,148.9,72
01,-35.4,149.0,14
01,-35.4,149.9,2
01,-35.4,150.3,1
01,-35.4,150.4,11
01,-35.3,141.8,31
01,-35.3,141.9,43
01,-35.3,142.0,24
01,-35.3,142.2,4
01,-35.3,142.3,14
01,-35.3,142.4,17
01,-35.3,144.3,3
01,-35.3,144.4,5
01,-35.3,144.5,2
01,-35.3,145.5,1
01,-35.3,147.7,3
01,-35.3,147.8,25
01,-35.3,147.9,53
01,-35.3,148.0,5
01,-35.3,148.5,1
01,-35.3,148.7,99
01,-35.3,148.8,47
01,-35.3,148.9,55
01,-35.3,149.0,8
01,-35.3,149.1,3
01,-35.3,149.8,3
01,-35.3,149.9,12
01,-35.3,150.0,39
01,-35.3,150.3,1
01,-35.3,150.4,5
01,-35.2,138.7,1
01,-35.2,141.3,1
01,-35.2,142.2,2
01,-35.2,142.3,38
01,-35.2,142.4,13
01,-35.2,143.7,1
01,-35.2,145.5,21
01,-35.2,145.6,11
01,-35.2,147.8,3
01,-35.2,147.9,17
01,-35.2,148.1,34
01,-35.2,148.2,7
01,-35.2,148.6,2
01,-35.2,148.7,81
01,-35.2,148.8,119
01,-35.2,148.9,73
01,-35.2,149.0,2
01,-35.2,149.5,1
01,-35.2,149.6,24
01,-35.2,149.9,15
01,-35.2,150.0,12
01,-35.2,150.2,5
01,-35.2,150.3,13
01,-35.2,150.4,10
01,-35.2,150.5,24
01,-35.2,150.6,1
01,-35.1,138.7,13
01,-35.1,138.8,1
01,-35.1,140.3,1
01,-35.1,140.4,12
01,-35.1,140.5,4
01,-35.1,141.3,7
01,-35.1,147.1,3
01,-35.1,147.5,5
01,-35.1,147.6,3
01,-35.1,148.6,33
01,-35.1,148.7,25
01,-35.1,148.8,114
01,-35.1,148.9,1
01,-35.1,149.4,1
01,-35.1,149.6,1
01,-35.1,149.9,2
01,-35.1,150.2,2
01,-35.1,150.3,11
01,-35.1,150.4,62
01,-35.1,150.5,66
01,-35.1,150.6,6
01,-35.0,116.6,4
01,-35.0,116.7,1
01,-35.0,117.1,2
01,-35.0,117.7,4
01,-35.0,117.8,3
01,-35.0,117.9,1
01,-35.0,138.7,2
01,-35.0,139.2,1
01,-35.0,140.0,1
01,-35.0,140.2,8
01,-35.0,140.3,14
01,-35.0,140.4,32
01,-35.0,140.5,24
01,-35.0,140.6,23
01,-35.0,141.3,21
01,-35.0,141.4,4
01,-35.0,146.0,3
01,-35.0,148.5,29
01,-35.0,148.6,131
01,-35.0,148.7,11
01,-35.0,150.0,22
01,-35.0,150.1,9
01,-35.0,150.2,4
01,-35.0,150.3,11
01,-35.0,150.4,10
01,-35.0,150.5,14
01,-35.0,150.6,4
01,-35.0,150.7,1
01,-34.9,116.6,5
01,-34.9,116.8,1
01,-34.9,116.9,3
01,-34.9,117.0,1
01,-34.9,117.9,2
01,-34.9,118.1,1
01,-34.9,118.2,1
01,-34.9,118.3,10
01,-34.9,138.8,5
01,-34.9,140.2,6
01,-34.9,140.3,11
01,-34.9,140.4,8
01,-34.9,140.5,2
01,-34.9,140.6,19
01,-34.9,140.7,1
01,-34.9,140.8,4
01,-34.9,147.5,3
01,-34.9,147.6,6
01,-34.9,148.5,18
01,-34.9,148.6,27
01,-34.9,148.7,41
01,-34.9,148.8,18
01,-34.9,149.2,1
01,-34.9,150.0,16
01,-34.9,150.1,35
01,-34.9,150.3,4
01,-34.9,150.4,41
01,-34.8,116.2,8
01,-34.8,116.3,5
01,-34.8,116.4,11
01,-34.8,116.6,3
01,-34.8,116.7,5
01,-34.8,116.8,6
01,-34.8,116.9,19
01,-34.8,117.0,1
01,-34.8,117.2,11
01,-34.8,117.3,16
01,-34.8,117.4,8
01,-34.8,117.5,1
01,-34.8,117.9,2
01,-34.8,118.2,1
01,-34.8,118.3,4
01,-34.8,135.8,4
01,-34.8,138.7,2
01,-34.8,138.8,65
01,-34.8,138.9,11
01,-34.8,142.3,4
01,-34.8,143.3,3
01,-34.8,145.9,1
01,-34.8,146.0,1
01,-34.8,147.9,5
01,-34.8,148.5,3
01,-34.8,148.6,15
01,-34.8,148.7,1
01,-34.8,148.8,1
01,-34.8,150.1,38
01,-34.8,150.2,19
01,-34.8,150.3,70
01,-34.8,150.4,35
01,-34.8,150.5,1
01,-34.7,116.3,31
01,-34.7,116.4,12
01,-34.7,117.1,1
01,-34.7,117.2,2
01,-34.7,117.3,30
01,-34.7,117.4,5
01,-34.7,118.4,20
01,-34.7,138.8,32
01,-34.7,138.9,8
01,-34.7,139.1,8
01,-34.7,139.2,9
01,-34.7,141.5,3
01,-34.7,141.6,2
01,-34.7,141.9,2
01,-34.7,143.1,2
01,-34.7,144.1,1
01,-34.7,146.4,9
01,-34.7,150.1,1
01,-34.7,150.2,39
01,-34.7,150.3,62
01,-34.7,150.4,12
01,-34.7,150.5,3
01,-34.6,115.8,8
01,-34.6,115.9,1
01,-34.6,116.1,3
01,-34.6,116.2,17
01,-34.6,116.3,3
01,-34.6,116.4,4
01,-34.6,116.7,3
01,-34.6,116.8,3
01,-34.6,117.3,1
01,-34.6,117.4,5
01,-34.6,118.1,1
01,-34.6,118.5,1
01,-34.6,135.6,1
01,-34.6,135.7,16
01,-34.6,135.8,26
01,-34.6,135.9,1
01,-34.6,139.2,4
01,-34.6,141.6,3
01,-34.6,141.9,9
01,-34.6,146.1,2
01,-34.6,146.4,2
01,-34.6,148.1,4
01,-34.6,150.3,5
01,-34.6,150.4,17
01,-34.6,150.7,2
01,-34.5,115.7,24
01,-34.5,115.8,14
01,-34.5,115.9,5
01,-34.5,116.0,2
01,-34.5,116.1,12
01,-34.5,116.3,1
01,-34.5,116.4,2
01,-34.5,116.8,4
01,-34.5,135.4,1
01,-34.5,135.5,5
01,-34.5,135.6,25
01,-34.5,135.7,44
01,-34.5,135.8,82
01,-34.5,135.9,40
01,-34.5,136.0,2
01,-34.5,139.2,5
01,-34.5,142.9,2
01,-34.5,143.6,1
01,-34.5,143.7,1
01,-34.5,144.3,2
01,-34.5,144.7,2
01,-34.5,145.2,3
01,-34.5,145.3,1
01,-34.5,145.6,1
01,-34.5,145.9,1
01,-34.5,146.0,2
01,-34.5,147.9,1
01,-34.5,150.6,1
01,-34.5,150.7,1
01,-34.5,150.9,90
01,-34.4,115.6,6
01,-34.4,115.7,4
01,-34.4,115.8,12
01,-34.4,115.9,16
01,-34.4,116.0,4
01,-34.4,116.1,5
01,-34.4,116.3,1
01,-34.4,116.4,2
01,-34.4,116.7,2
01,-34.4,116.8,4
01,-34.4,118.7,1
01,-34.4,135.6,1
01,-34.4,135.7,6
01,-34.4,135.9,9
01,-34.4,139.2,1
01,-34.4,140.5,11
01,-34.4,140.6,42
01,-34.4,142.0,2
01,-34.4,143.8,3
01,-34.4,145.5,1
01,-34.4,145.6,1
01,-34.4,145.9,4
01,-34.4,146.0,2
01,-34.4,146.3,2
01,-34.4,148.3,5
01,-34.4,148.5,1
01,-34.4,148.6,5
01,-34.4,149.1,5
01,-34.4,149.9,50
01,-34.4,150.0,18
01,-34.4,150.1,5
01,-34.4,150.3,17
01,-34.4,150.4,50
01,-34.4,150.5,2
01,-34.4,150.6,31
01,-34.4,150.7,5
01,-34.4,150.9,5
01,-34.3,115.1,3
01,-34.3,115.5,6
01,-34.3,115.8,2
01,-34.3,115.9,10
01,-34.3,116.0,1
01,-34.3,116.1,1
01,-34.3,116.3,2
01,-34.3,116.4,1
01,-34.3,116.6,1
01,-34.3,116.7,3
01,-34.3,116.8,5
01,-34.3,119.4,2
01,-34.3,135.9,1
01,-34.3,140.5,1
01,-34.3,142.3,3
01,-34.3,142.8,2
01,-34.3,142.9,8
01,-34.3,145.8,2
01,-34.3,145.9,3
01,-34.3,149.9,16
01,-34.3,150.0,52
01,-34.3,150.1,18
01,-34.3,150.2,10
01,-34.3,150.3,93
01,-34.3,150.4,29
01,-34.3,150.5,1
01,-34.3,150.6,2
01,-34.3,150.7,11
01,-34.3,150.8,12
01,-34.3,150.9,2
01,-34.2,115.6,4
01,-34.2,115.8,2
01,-34.2,115.9,2
01,-34.2,116.1,3
01,-34.2,116.9,2
01,-34.2,118.2,1
01,-34.2,139.8,1
01,-34.2,140.4,1
01,-34.2,140.8,4
01,-34.2,141.8,1
01,-34.2,142.1,1
01,-34.2,145.8,3
01,-34.2,145.9,1
01,-34.2,149.9,3
01,-34.2,150.0,3
01,-34.2,150.1,1
01,-34.2,150.3,7
01,-34.2,150.4,2
01,-34.2,150.7,10
01,-34.2,150.8,2
01,-34.2,151.0,2
01,-34.2,151.1,6
01,-34.1,115.5,5
01,-34.1,116.0,2
01,-34.1,116.8,5
01,-34.1,119.3,7
01,-34.1,119.4,4
01,-34.1,119.5,4
01,-34.1,119.6,1
01,-34.1,119.7,6
01,-34.1,140.5,11
01,-34.1,140.6,2
01,-34.1,142.5,2
01,-34.1,142.6,6
01,-34.1,146.7,1
01,-34.1,146.8,1
01,-34.1,147.6,2
01,-34.1,149.0,5
01,-34.1,149.5,1
01,-34.1,149.6,3
01,-34.1,150.0,8
01,-34.1,150.1,2
01,-34.1,150.4,8
01,-34.1,151.0,1
01,-34.1,151.1,5
01,-34.0,116.0,3
01,-34.0,116.1,7
01,-34.0,117.0,1
01,-34.0,118.9,3
01,-34.0,119.2,16
01,-34.0,119.3,50
01,-34.0,119.4,50
01,-34.0,119.5,20
01,-34.0,119.6,4
01,-34.0,119.7,12
01,-34.0,122.1,1
01,-34.0,123.2,8
01,-34.0,123.3,4
01,-34.0,139.8,1
01,-34.0,140.5,28
01,-34.0,140.6,10
01,-34.0,140.7,15
01,-34.0,142.2,7
01,-34.0,142.3,1
01,-34.0,142.4,1
01,-34.0,142.5,3
01,-34.0,142.7,2
01,-34.0,143.1,3
01,-34.0,143.2,8
01,-34.0,148.0,29
01,-34.0,149.0,4
01,-34.0,149.1,20
01,-34.0,150.4,6
01,-34.0,150.5,16
01,-34.0,150.9,4
01,-34.0,151.0,1
01,-34.0,151.2,1
01,-33.9,115.9,7
01,-33.9,116.0,19
01,-33.9,116.1,29
01,-33.9,116.2,1
01,-33.9,117.4,2
01,-33.9,117.9,2
01,-33.9,119.3,8
01,-33.9,119.4,32
01,-33.9,119.5,3
01,-33.9,120.7,9
01,-33.9,121.6,1
01,-33.9,121.7,2
01,-33.9,123.4,2
01,-33.9,123.5,11
01,-33.9,135.3,7
01,-33.9,138.9,2
01,-33.9,140.5,27
01,-33.9,140.6,38
01,-33.9,140.7,4
01,-33.9,142.1,1
01,-33.9,142.7,14
01,-33.9,142.8,2
01,-33.9,143.2,2
01,-33.9,146.8,8
01,-33.9,147.9,16
01,-33.9,148.0,35
01,-33.9,148.4,1
01,-33.9,148.8,1
01,-33.9,149.1,1
01,-33.9,149.2,12
01,-33.9,149.3,1
01,-33.9,149.7,2
01,-33.9,150.3,2
01,-33.9,150.4,67
01,-33.9,150.5,11
01,-33.8,115.1,1
01,-33.8,120.6,1
01,-33.8,121.6,8
01,-33.8,121.7,24
01,-33.8,121.8,10
01,-33.8,122.7,1
01,-33.8,123.5,13
01,-33.8,123.6,1
01,-33.8,140.5,1
01,-33.8,140.6,16
01,-33.8,142.1,1
01,-33.8,142.2,1
01,-33.8,145.5,1
01,-33.8,149.2,12
01,-33.8,149.3,12
01,-33.8,149.4,15
01,-33.8,149.5,2
01,-33.8,149.6,12
01,-33.8,150.0,1
01,-33.8,150.2,1
01,-33.8,150.4,35
01,-33.8,150.5,27
01,-33.8,150.6,1
01,-33.8,151.1,9
01,-33.7,115.3,1
01,-33.7,115.5,1
01,-33.7,115.8,1
01,-33.7,115.9,6
01,-33.7,116.0,5
01,-33.7,116.1,1
01,-33.7,117.1,7
01,-33.7,120.1,11
01,-33.7,120.7,4
01,-33.7,120.9,4
01,-33.7,121.1,2
01,-33.7,121.4,1
01,-33.7,122.6,1
01,-33.7,136.0,3
01,-33.7,136.1,1
01,-33.7,138.0,4
01,-33.7,138.2,2
01,-33.7,142.5,1
01,-33.7,142.6,2
01,-33.7,145.1,2
01,-33.7,145.5,2
01,-33.7,146.2,15
01,-33.7,146.3,9
01,-33.7,149.0,1
01,-33.7,150.3,1
01,-33.7,150.4,2
01,-33.7,150.5,5
01,-33.7,150.6,10
01,-33.7,150.7,4
01,-33.7,150.8,1
01,-33.7,151.0,1
01,-33.7,151.1,10
01,-33.7,151.2,3
01,-33.6,115.1,1
01,-33.6,115.8,3
01,-33.6,115.9,4
01,-33.6,116.1,19
01,-33.6,116.5,2
01,-33.6,117.1,2
01,-33.6,118.3,1
01,-33.6,120.7,3
01,-33.6,138.5,4
01,-33.6,145.4,4
01,-33.6,147.9,2
01,-33.6,149.4,1
01,-33.6,150.6,1
01,-33.6,151.2,5
01,-33.6,151.3,3
01,-33.5,115.8,4
01,-33.5,115.9,1
01,-33.5,116.0,2
01,-33.5,116.1,8
01,-33.5,122.2,2
01,-33.5,142.2,1
01,-33.5,145.4,1
01,-33.5,145.7,1
01,-33.5,147.3,3
01,-33.5,148.4,4
01,-33.5,149.4,2
01,-33.5,150.6,9
01,-33.5,151.2,1
01,-33.5,151.3,14
01,-33.4,115.6,1
01,-33.4,115.9,2
01,-33.4,120.4,1
01,-33.4,122.4,1
01,-33.4,122.5,8
01,-33.4,122.7,1
01,-33.4,123.1,1
01,-33.4,123.3,1
01,-33.4,138.5,1
01,-33.4,140.8,7
01,-33.4,142.2,2
01,-33.4,145.7,2
01,-33.4,145.8,2
01,-33.4,146.8,1
01,-33.4,147.3,5
01,-33.4,147.4,1
01,-33.4,148.1,1
01,-33.4,148.2,1
01,-33.4,150.3,5
01,-33.4,150.4,1
01,-33.4,150.5,3
01,-33.4,150.6,4
01,-33.4,150.7,10
01,-33.4,150.8,9
01,-33.4,151.1,13
01,-33.4,151.2,4
01,-33.4,151.3,4
01,-33.3,115.7,1
01,-33.3,115.8,1
01,-33.3,116.1,3
01,-33.3,116.3,4
01,-33.3,120.3,3
01,-33.3,122.2,4
01,-33.3,122.3,8
01,-33.3,122.7,3
01,-33.3,123.1,30
01,-33.3,123.2,12
01,-33.3,123.3,29
01,-33.3,123.4,3
01,-33.3,123.6,46
01,-33.3,123.7,86
01,-33.3,123.8,59
01,-33.3,123.9,3
01,-33.3,136.9,2
01,-33.3,137.0,2
01,-33.3,138.5,29
01,-33.3,138.6,26
01,-33.3,141.1,1
01,-33.3,142.9,6
01,-33.3,145.6,4
01,-33.3,147.5,1
01,-33.3,149.8,4
01,-33.3,150.2,13
01,-33.3,150.3,89
01,-33.3,150.4,25
01,-33.3,150.5,4
01,-33.3,150.6,16
01,-33.3,150.7,20
01,-33.3,150.8,2
01,-33.3,151.1,5
01,-33.3,151.2,1
01,-33.2,115.7,9
01,-33.2,115.8,5
01,-33.2,116.3,3
01,-33.2,116.4,1
01,-33.2,116.5,45
01,-33.2,116.6,5
01,-33.2,116.7,2
01,-33.2,118.9,1
01,-33.2,122.1,8
01,-33.2,122.2,33
01,-33.2,122.3,16
01,-33.2,122.4,2
01,-33.2,122.5,6
01,-33.2,122.7,3
01,-33.2,123.2,27
01,-33.2,123.3,15
01,-33.2,123.7,43
01,-33.2,123.8,83
01,-33.2,123.9,47
01,-33.2,138.1,1
01,-33.2,138.6,5
01,-33.2,147.5,1
01,-33.2,148.1,3
01,-33.2,148.3,11
01,-33.2,148.4,3
01,-33.2,148.7,1
01,-33.2,149.4,2
01,-33.2,150.0,1
01,-33.2,150.1,33
01,-33.2,150.2,3
01,-33.2,150.3,86
01,-33.2,150.4,50
01,-33.2,150.5,78
01,-33.2,150.6,22
01,-33.2,150.7,10
01,-33.2,151.6,6
01,-33.1,116.3,6
01,-33.1,122.1,1
01,-33.1,122.2,9
01,-33.1,122.3,18
01,-33.1,122.4,21
01,-33.1,123.0,6
01,-33.1,123.1,13
01,-33.1,123.2,40
01,-33.1,123.3,2
01,-33.1,123.8,54
01,-33.1,123.9,49
01,-33.1,124.1,2
01,-33.1,138.1,27
01,-33.1,138.2,22
01,-33.1,141.2,5
01,-33.1,141.3,9
01,-33.1,146.6,1
01,-33.1,147.8,4
01,-33.1,148.1,1
01,-33.1,148.5,6
01,-33.1,149.3,6
01,-33.1,149.7,1
01,-33.1,150.1,4
01,-33.1,150.3,27
01,-33.1,150.4,118
01,-33.1,150.5,41
01,-33.1,150.6,60
01,-33.1,150.7,8
01,-33.1,150.8,1
01,-33.1,151.6,1
01,-33.0,115.7,3
01,-33.0,115.8,26
01,-33.0,115.9,9
01,-33.0,116.0,39
01,-33.0,116.1,19
01,-33.0,116.2,42
01,-33.0,116.4,9
01,-33.0,120.2,4
01,-33.0,122.8,35
01,-33.0,122.9,4
01,-33.0,123.0,24
01,-33.0,123.1,18
01,-33.0,123.2,13
01,-33.0,123.3,1
01,-33.0,123.6,3
01,-33.0,123.7,53
01,-33.0,123.8,16
01,-33.0,123.9,41
01,-33.0,124.0,41
01,-33.0,124.1,6
01,-33.0,124.2,45
01,-33.0,124.3,6
01,-33.0,137.6,12
01,-33.0,138.1,57
01,-33.0,138.2,1
01,-33.0,141.3,1
01,-33.0,146.0,1
01,-33.0,146.3,6
01,-33.0,146.5,1
01,-33.0,146.6,1
01,-33.0,148.1,2
01,-33.0,149.3,9
01,-33.0,150.0,4
01,-33.0,150.2,3
01,-33.0,150.3,7
01,-33.0,150.4,36
01,-33.0,150.5,32
01,-33.0,150.6,22
01,-33.0,150.8,1
01,-33.0,150.9,3
01,-33.0,151.1,1
01,-33.0,151.5,2
01,-32.9,115.8,44
01,-32.9,115.9,38
01,-32.9,116.0,84
01,-32.9,116.1,134
01,-32.9,116.2,61
01,-32.9,116.3,2
01,-32.9,116.4,14
01,-32.9,116.5,11
01,-32.9,117.7,1
01,-32.9,119.0,1
01,-32.9,120.1,8
01,-32.9,120.2,9
01,-32.9,120.3,25
01,-32.9,120.4,4
01,-32.9,122.1,1
01,-32.9,123.0,24
01,-32.9,123.1,23
01,-32.9,123.6,26
01,-32.9,123.7,41
01,-32.9,123.8,6
01,-32.9,123.9,1
01,-32.9,124.0,46
01,-32.9,124.1,76
01,-32.9,124.2,127
01,-32.9,124.3,81
01,-32.9,124.4,33
01,-32.9,124.5,7
01,-32.9,135.5,10
01,-32.9,135.6,9
01,-32.9,145.0,2
01,-32.9,145.9,12
01,-32.9,146.7,7
01,-32.9,150.4,2
01,-32.9,150.5,1
01,-32.9,150.6,1
01,-32.9,151.6,1
01,-32.9,151.7,2
01,-32.8,115.7,8
01,-32.8,115.8,1
01,-32.8,115.9,9
01,-32.8,116.0,8
01,-32.8,116.1,4
01,-32.8,116.5,4
01,-32.8,120.0,1
01,-32.8,120.1,4
01,-32.8,120.3,1
01,-32.8,122.0,6
01,-32.8,122.1,9
01,-32.8,122.2,33
01,-32.8,123.1,1
01,-32.8,124.0,19
01,-32.8,124.1,86
01,-32.8,124.2,55
01,-32.8,124.3,63
01,-32.8,124.4,25
01,-32.8,136.4,3
01,-32.8,141.5,4
01,-32.8,145.7,2
01,-32.8,145.9,2
01,-32.8,146.0,2
01,-32.8,146.3,1
01,-32.8,149.4,2
01,-32.8,150.1,9
01,-32.8,150.6,25
01,-32.8,150.7,29
01,-32.8,150.8,4
01,-32.8,150.9,10
01,-32.8,151.0,19
01,-32.8,151.4,2
01,-32.8,151.5,3
01,-32.8,151.8,13
01,-32.8,151.9,3
01,-32.8,152.0,1
01,-32.7,115.8,1
01,-32.7,115.9,1
01,-32.7,116.0,2
01,-32.7,120.0,7
01,-32.7,120.1,1
01,-32.7,120.2,10
01,-32.7,120.3,2
01,-32.7,120.4,6
01,-32.7,121.0,12
01,-32.7,121.1,4
01,-32.7,121.2,4
01,-32.7,121.9,4
01,-32.7,122.0,92
01,-32.7,122.1,53
01,-32.7,122.2,32
01,-32.7,122.3,39
01,-32.7,122.4,31
01,-32.7,122.6,5
01,-32.7,122.8,4
01,-32.7,123.4,25
01,-32.7,124.1,3
01,-32.7,124.2,3
01,-32.7,124.3,1
01,-32.7,124.6,1
01,-32.7,124.7,4
01,-32.7,135.5,3
01,-32.7,145.9,1
01,-32.7,146.0,3
01,-32.7,146.1,1
01,-32.7,146.2,8
01,-32.7,149.6,1
01,-32.7,149.8,3
01,-32.7,150.0,9
01,-32.7,150.1,127
01,-32.7,150.2,21
01,-32.7,150.6,18
01,-32.7,150.7,15
01,-32.7,150.8,22
01,-32.7,150.9,69
01,-32.7,151.0,33
01,-32.7,151.2,1
01,-32.7,151.9,5
01,-32.7,152.1,4
01,-32.7,152.2,2
01,-32.6,117.1,4
01,-32.6,117.3,1
01,-32.6,120.0,5
01,-32.6,120.1,1
01,-32.6,120.5,2
01,-32.6,121.0,1
01,-32.6,121.9,19
01,-32.6,122.0,104
01,-32.6,122.1,61
01,-32.6,122.2,49
01,-32.6,122.3,70
01,-32.6,122.4,7
01,-32.6,122.5,4
01,-32.6,122.7,6
01,-32.6,122.8,38
01,-32.6,122.9,2
01,-32.6,123.0,4
01,-32.6,123.1,20
01,-32.6,123.2,10
01,-32.6,123.3,38
01,-32.6,123.4,76
01,-32.6,123.5,7
01,-32.6,135.3,15
01,-32.6,135.4,1
01,-32.6,135.5,40
01,-32.6,135.6,8
01,-32.6,136.8,1
01,-32.6,138.0,30
01,-32.6,138.1,10
01,-32.6,139.9,4
01,-32.6,150.0,1
01,-32.6,150.1,1
01,-32.6,150.2,79
01,-32.6,150.3,7
01,-32.6,150.4,58
01,-32.6,150.5,3
01,-32.6,150.6,21
01,-32.6,150.7,32
01,-32.6,150.8,93
01,-32.6,150.9,11
01,-32.6,151.3,2
01,-32.6,151.9,7
01,-32.6,152.1,1
01,-32.6,152.2,6
01,-32.5,116.3,3
01,-32.5,116.4,39
01,-32.5,116.5,40
01,-32.5,116.6,1
01,-32.5,120.8,1
01,-32.5,120.9,2
01,-32.5,121.3,12
01,-32.5,121.4,11
01,-32.5,121.9,40
01,-32.5,122.0,60
01,-32.5,122.1,32
01,-32.5,122.3,55
01,-32.5,122.4,5
01,-32.5,122.5,4
01,-32.5,122.6,1
01,-32.5,122.7,6
01,-32.5,122.8,37
01,-32.5,122.9,5
01,-32.5,123.0,31
01,-32.5,123.1,79
01,-32.5,123.2,50
01,-32.5,123.3,23
01,-32.5,123.4,31
01,-32.5,123.5,34
01,-32.5,123.6,19
01,-32.5,123.7,5
01,-32.5,124.5,7
01,-32.5,124.6,11
01,-32.5,124.7,2
01,-32.5,135.3,1
01,-32.5,136.4,3
01,-32.5,137.7,1
01,-32.5,138.1,2
01,-32.5,148.0,5
01,-32.5,148.3,3
01,-32.5,148.4,4
01,-32.5,148.5,1
01,-32.5,149.2,29
01,-32.5,149.3,2
01,-32.5,150.0,4
01,-32.5,150.2,27
01,-32.5,150.3,11
01,-32.5,150.4,12
01,-32.5,150.5,10
01,-32.5,150.6,1
01,-32.5,150.7,1
01,-32.5,152.0,2
01,-32.4,115.8,5
01,-32.4,115.9,5
01,-32.4,116.3,59
01,-32.4,116.4,22
01,-32.4,116.5,3
01,-32.4,120.8,3
01,-32.4,120.9,48
01,-32.4,121.3,28
01,-32.4,121.4,13
01,-32.4,121.5,13
01,-32.4,121.6,23
01,-32.4,121.7,2
01,-32.4,121.8,5
01,-32.4,122.0,28
01,-32.4,122.1,45
01,-32.4,122.2,24
01,-32.4,122.3,65
01,-32.4,122.4,53
01,-32.4,122.5,2
01,-32.4,122.6,25
01,-32.4,122.7,14
01,-32.4,122.8,5
01,-32.4,122.9,14
01,-32.4,123.0,36
01,-32.4,123.1,48
01,-32.4,123.2,52
01,-32.4,123.4,10
01,-32.4,123.5,94
01,-32.4,123.6,139
01,-32.4,123.7,13
01,-32.4,124.6,3
01,-32.4,124.7,1
01,-32.4,135.1,2
01,-32.4,135.2,2
01,-32.4,135.7,2
01,-32.4,135.9,1
01,-32.4,136.1,1
01,-32.4,137.8,1
01,-32.4,145.9,3
01,-32.4,148.0,3
01,-32.4,149.4,1
01,-32.4,152.0,1
01,-32.4,152.5,5
01,-32.3,115.8,7
01,-32.3,115.9,10
01,-32.3,116.3,3
01,-32.3,116.6,8
01,-32.3,119.5,3
01,-32.3,120.8,3
01,-32.3,120.9,3
01,-32.3,121.0,9
01,-32.3,121.1,17
01,-32.3,121.4,2
01,-32.3,121.6,29
01,-32.3,121.7,2
01,-32.3,122.0,14
01,-32.3,122.1,47
01,-32.3,122.2,25
01,-32.3,122.3,62
01,-32.3,122.4,29
01,-32.3,122.5,7
01,-32.3,122.6,34
01,-32.3,122.7,16
01,-32.3,122.9,5
01,-32.3,123.2,36
01,-32.3,123.3,24
01,-32.3,123.4,62
01,-32.3,123.5,83
01,-32.3,123.6,29
01,-32.3,134.8,8
01,-32.3,134.9,3
01,-32.3,135.2,4
01,-32.3,145.6,1
01,-32.3,145.9,1
01,-32.3,146.0,7
01,-32.3,146.1,3
01,-32.3,146.2,29
01,-32.3,146.8,1
01,-32.3,147.2,1
01,-32.3,152.0,3
01,-32.2,115.8,2
01,-32.2,115.9,11
01,-32.2,116.0,1
01,-32.2,116.2,13
01,-32.2,116.3,10
01,-32.2,120.8,12
01,-32.2,120.9,23
01,-32.2,121.0,48
01,-32.2,121.1,33
01,-32.2,121.2,5
01,-32.2,121.3,1
01,-32.2,121.4,8
01,-32.2,121.9,1
01,-32.2,122.1,1
01,-32.2,122.3,41
01,-32.2,122.4,13
01,-32.2,122.6,2
01,-32.2,123.1,1
01,-32.2,123.2,24
01,-32.2,123.3,17
01,-32.2,123.4,16
01,-32.2,123.6,1
01,-32.2,134.8,28
01,-32.2,134.9,4
01,-32.2,145.5,1
01,-32.2,145.6,12
01,-32.2,146.0,4
01,-32.2,146.2,1
01,-32.2,146.8,2
01,-32.2,151.3,12
01,-32.2,151.4,27
01,-32.2,152.5,1
01,-32.1,115.8,1
01,-32.1,115.9,1
01,-32.1,116.0,1
01,-32.1,116.1,47
01,-32.1,116.2,175
01,-32.1,116.3,136
01,-32.1,116.4,73
01,-32.1,119.8,8
01,-32.1,119.9,19
01,-32.1,120.0,4
01,-32.1,120.4,3
01,-32.1,120.5,32
01,-32.1,120.6,30
01,-32.1,120.7,1
01,-32.1,120.9,14
01,-32.1,121.0,24
01,-32.1,121.1,12
01,-32.1,121.2,3
01,-32.1,122.1,4
01,-32.1,122.9,2
01,-32.1,123.7,12
01,-32.1,123.8,12
01,-32.1,146.0,5
01,-32.1,146.1,2
01,-32.1,146.3,6
01,-32.1,147.0,9
01,-32.1,147.2,5
01,-32.1,148.4,2
01,-32.1,148.9,53
01,-32.1,149.0,21
01,-32.1,149.1,1
01,-32.1,151.3,3
01,-32.1,151.4,5
01,-32.1,151.8,1
01,-32.0,115.8,1
01,-32.0,116.0,1
01,-32.0,116.1,4
01,-32.0,116.2,32
01,-32.0,116.3,64
01,-32.0,116.4,4
01,-32.0,119.6,2
01,-32.0,119.7,8
01,-32.0,119.8,17
01,-32.0,119.9,23
01,-32.0,120.0,36
01,-32.0,120.1,15
01,-32.0,120.2,1
01,-32.0,120.4,1
01,-32.0,120.5,32
01,-32.0,120.6,25
01,-32.0,120.9,1
01,-32.0,121.0,22
01,-32.0,121.1,2
01,-32.0,121.4,3
01,-32.0,121.5,22
01,-32.0,121.6,32
01,-32.0,121.7,5
01,-32.0,122.3,3
01,-32.0,122.9,4
01,-32.0,123.0,2
01,-32.0,123.5,7
01,-32.0,123.6,11
01,-32.0,127.3,2
01,-32.0,127.4,4
01,-32.0,127.5,1
01,-32.0,133.9,2
01,-32.0,134.0,7
01,-32.0,134.1,15
01,-32.0,135.8,5
01,-32.0,142.8,1
01,-32.0,146.0,14
01,-32.0,146.9,2
01,-32.0,147.1,6
01,-32.0,148.8,37
01,-32.0,148.9,105
01,-32.0,149.0,133
01,-32.0,149.1,55
01,-32.0,151.2,5
01,-32.0,151.3,2
01,-32.0,151.4,31
01,-32.0,151.5,1
01,-32.0,151.7,2
01,-32.0,151.9,1
01,-32.0,152.3,1
01,-31.9,115.8,2
01,-31.9,116.1,10
01,-31.9,116.2,4
01,-31.9,116.3,1
01,-31.9,116.6,2
01,-31.9,116.7,6
01,-31.9,119.6,1
01,-31.9,119.7,52
01,-31.9,119.8,38
01,-31.9,119.9,32
01,-31.9,120.0,40
01,-31.9,120.1,4
01,-31.9,120.2,2
01,-31.9,120.4,1
01,-31.9,120.6,2
01,-31.9,120.9,36
01,-31.9,121.0,4
01,-31.9,121.4,41
01,-31.9,121.5,126
01,-31.9,121.6,55
01,-31.9,122.8,13
01,-31.9,122.9,46
01,-31.9,123.0,7
01,-31.9,123.5,7
01,-31.9,123.6,47
01,-31.9,123.7,17
01,-31.9,133.2,1
01,-31.9,133.6,3
01,-31.9,133.9,12
01,-31.9,134.0,34
01,-31.9,134.1,45
01,-31.9,134.2,2
01,-31.9,138.7,7
01,-31.9,142.8,4
01,-31.9,145.7,1
01,-31.9,145.8,12
01,-31.9,146.4,2
01,-31.9,146.5,4
01,-31.9,148.0,2
01,-31.9,148.8,9
01,-31.9,148.9,33
01,-31.9,149.0,31
01,-31.9,149.1,1
01,-31.9,151.1,2
01,-31.9,151.7,1
01,-31.9,152.7,3
01,-31.8,115.8,5
01,-31.8,115.9,1
01,-31.8,116.0,2
01,-31.8,116.1,10
01,-31.8,116.4,3
01,-31.8,116.9,2
01,-31.8,117.0,2
01,-31.8,117.5,1
01,-31.8,119.7,18
01,-31.8,119.8,3
01,-31.8,120.0,5
01,-31.8,120.1,2
01,-31.8,120.2,3
01,-31.8,121.5,29
01,-31.8,121.6,4
01,-31.8,122.7,11
01,-31.8,122.8,28
01,-31.8,122.9,53
01,-31.8,123.0,40
01,-31.8,123.3,8
01,-31.8,123.6,15
01,-31.8,123.7,4
01,-31.8,133.1,34
01,-31.8,133.2,66
01,-31.8,133.5,18
01,-31.8,133.6,57
01,-31.8,133.7,50
01,-31.8,133.8,7
01,-31.8,133.9,1
01,-31.8,134.0,33
01,-31.8,134.1,29
01,-31.8,134.2,8
01,-31.8,143.4,3
01,-31.8,145.6,2
01,-31.8,145.8,13
01,-31.8,146.6,2
01,-31.8,146.7,3
01,-31.8,149.0,8
01,-31.8,151.4,4
01,-31.8,151.7,5
01,-31.8,151.8,17
01,-31.8,151.9,13
01,-31.8,152.7,13
01,-31.7,115.7,2
01,-31.7,115.8,13
01,-31.7,115.9,19
01,-31.7,116.0,9
01,-31.7,119.3,1
01,-31.7,119.4,14
01,-31.7,119.6,7
01,-31.7,119.7,42
01,-31.7,119.8,13
01,-31.7,119.9,1
01,-31.7,121.3,3
01,-31.7,121.4,1
01,-31.7,121.8,11
01,-31.7,123.3,39
01,-31.7,123.4,6
01,-31.7,132.8,2
01,-31.7,132.9,50
01,-31.7,133.0,12
01,-31.7,133.1,18
01,-31.7,133.2,19
01,-31.7,133.3,2
01,-31.7,133.5,11
01,-31.7,133.6,45
01,-31.7,133.7,55
01,-31.7,133.8,13
01,-31.7,134.5,1
01,-31.7,142.7,2
01,-31.7,145.9,6
01,-31.7,146.0,1
01,-31.7,146.1,5
01,-31.7,146.3,9
01,-31.7,146.4,1
01,-31.7,148.3,1
01,-31.7,148.8,13
01,-31.7,149.0,15
01,-31.7,149.6,1
01,-31.7,151.0,3
01,-31.7,151.6,2
01,-31.7,151.8,11
01,-31.7,151.9,7
01,-31.7,152.1,1
01,-31.7,152.7,6
01,-31.6,115.7,8
01,-31.6,115.8,21
01,-31.6,115.9,2
01,-31.6,116.0,1
01,-31.6,116.1,3
01,-31.6,116.2,36
01,-31.6,116.3,10
01,-31.6,117.6,1
01,-31.6,119.7,8
01,-31.6,119.8,24
01,-31.6,119.9,6
01,-31.6,120.0,2
01,-31.6,120.8,11
01,-31.6,120.9,4
01,-31.6,121.4,3
01,-31.6,121.5,1
01,-31.6,121.7,19
01,-31.6,121.8,16
01,-31.6,122.8,1
01,-31.6,123.0,15
01,-31.6,133.3,29
01,-31.6,133.4,9
01,-31.6,133.7,4
01,-31.6,138.6,5
01,-31.6,145.9,7
01,-31.6,146.3,8
01,-31.6,146.6,2
01,-31.6,146.7,2
01,-31.6,147.1,2
01,-31.6,148.1,1
01,-31.6,148.4,1
01,-31.6,148.6,4
01,-31.6,150.7,4
01,-31.6,150.8,4
01,-31.6,151.2,3
01,-31.6,151.4,9
01,-31.6,151.5,9
01,-31.6,151.6,1
01,-31.6,151.8,7
01,-31.6,151.9,6
01,-31.6,152.0,8
01,-31.6,152.1,17
01,-31.6,152.6,1
01,-31.6,152.7,1
01,-31.5,115.6,11
01,-31.5,115.7,24
01,-31.5,115.8,2
01,-31.5,115.9,2
01,-31.5,116.0,1
01,-31.5,116.2,15
01,-31.5,116.3,8
01,-31.5,116.4,1
01,-31.5,116.5,3
01,-31.5,118.3,1
01,-31.5,119.8,15
01,-31.5,119.9,7
01,-31.5,120.0,5
01,-31.5,120.1,2
01,-31.5,120.6,16
01,-31.5,120.7,2
01,-31.5,120.8,66
01,-31.5,120.9,11
01,-31.5,121.0,12
01,-31.5,121.1,16
01,-31.5,123.0,27
01,-31.5,123.6,40
01,-31.5,123.7,6
01,-31.5,123.8,13
01,-31.5,127.5,2
01,-31.5,132.1,7
01,-31.5,133.3,9
01,-31.5,133.4,5
01,-31.5,133.6,1
01,-31.5,138.6,1
01,-31.5,147.5,2
01,-31.5,147.7,3
01,-31.5,149.7,1
01,-31.5,150.1,1
01,-31.5,150.2,2
01,-31.5,151.2,11
01,-31.5,151.3,28
01,-31.5,151.4,22
01,-31.5,151.5,3
01,-31.5,151.7,5
01,-31.5,151.8,10
01,-31.5,152.0,2
01,-31.5,152.1,2
01,-31.5,152.6,1
01,-31.5,152.7,5
01,-31.5,152.9,2
01,-31.4,115.6,5
01,-31.4,115.7,11
01,-31.4,115.8,2
01,-31.4,116.2,35
01,-31.4,116.3,5
01,-31.4,116.4,2
01,-31.4,119.8,7
01,-31.4,119.9,14
01,-31.4,120.6,22
01,-31.4,120.7,2
01,-31.4,120.8,19
01,-31.4,120.9,3
01,-31.4,121.0,7
01,-31.4,121.1,8
01,-31.4,121.2,10
01,-31.4,121.3,2
01,-31.4,122.9,2
01,-31.4,123.0,71
01,-31.4,123.1,22
01,-31.4,123.2,15
01,-31.4,127.2,6
01,-31.4,127.3,5
01,-31.4,127.4,2
01,-31.4,127.5,3
01,-31.4,127.6,2
01,-31.4,127.7,2
01,-31.4,133.2,5
01,-31.4,133.5,1
01,-31.4,133.6,24
01,-31.4,133.8,4
01,-31.4,133.9,3
01,-31.4,147.7,1
01,-31.4,147.8,1
01,-31.4,147.9,1
01,-31.4,148.0,3
01,-31.4,148.9,3
01,-31.4,149.0,29
01,-31.4,149.1,5
01,-31.4,150.5,1
01,-31.4,151.2,2
01,-31.4,151.3,1
01,-31.4,151.5,3
01,-31.4,151.6,3
01,-31.4,151.7,13
01,-31.4,151.8,22
01,-31.4,151.9,1
01,-31.4,152.0,1
01,-31.4,152.1,11
01,-31.4,152.7,17
01,-31.3,116.3,10
01,-31.3,119.6,1
01,-31.3,119.7,2
01,-31.3,119.8,8
01,-31.3,119.9,10
01,-31.3,120.1,4
01,-31.3,120.6,9
01,-31.3,120.7,13
01,-31.3,120.8,13
01,-31.3,120.9,14
01,-31.3,121.0,13
01,-31.3,121.1,24
01,-31.3,121.2,20
01,-31.3,121.3,24
01,-31.3,123.0,2
01,-31.3,123.1,5
01,-31.3,123.7,5
01,-31.3,127.3,1
01,-31.3,127.5,5
01,-31.3,127.6,4
01,-31.3,133.0,1
01,-31.3,133.1,3
01,-31.3,133.2,3
01,-31.3,133.7,14
01,-31.3,133.8,2
01,-31.3,146.3,8
01,-31.3,147.0,2
01,-31.3,147.8,1
01,-31.3,147.9,3
01,-31.3,148.9,45
01,-31.3,149.0,53
01,-31.3,149.1,24
01,-31.3,149.2,21
01,-31.3,150.4,4
01,-31.3,151.2,2
01,-31.3,151.3,7
01,-31.3,151.6,2
01,-31.3,152.7,3
01,-31.3,152.8,2
01,-31.2,116.1,12
01,-31.2,116.3,15
01,-31.2,117.3,3
01,-31.2,118.3,2
01,-31.2,119.5,12
01,-31.2,119.6,10
01,-31.2,119.7,7
01,-31.2,120.1,1
01,-31.2,120.2,3
01,-31.2,120.7,45
01,-31.2,120.8,13
01,-31.2,120.9,37
01,-31.2,121.0,13
01,-31.2,121.1,18
01,-31.2,121.2,15
01,-31.2,123.9,13
01,-31.2,132.7,3
01,-31.2,133.0,7
01,-31.2,133.1,37
01,-31.2,133.2,7
01,-31.2,144.8,14
01,-31.2,146.1,3
01,-31.2,146.6,1
01,-31.2,148.9,16
01,-31.2,149.0,21
01,-31.2,149.1,59
01,-31.2,149.2,18
01,-31.2,149.3,35
01,-31.2,150.4,2
01,-31.2,150.5,5
01,-31.2,151.3,2
01,-31.2,152.0,2
01,-31.2,152.6,2
01,-31.2,152.9,6
01,-31.1,115.4,8
01,-31.1,115.6,1
01,-31.1,115.8,6
01,-31.1,115.9,13
01,-31.1,117.9,1
01,-31.1,119.5,40
01,-31.1,119.6,23
01,-31.1,119.7,2
01,-31.1,119.8,2
01,-31.1,120.0,13
01,-31.1,120.1,8
01,-31.1,120.3,6
01,-31.1,120.4,6
01,-31.1,120.7,6
01,-31.1,123.3,2
01,-31.1,123.4,19
01,-31.1,123.6,3
01,-31.1,123.7,15
01,-31.1,123.8,33
01,-31.1,123.9,20
01,-31.1,124.0,19
01,-31.1,124.1,13
01,-31.1,132.7,23
01,-31.1,132.8,23
01,-31.1,132.9,10
01,-31.1,133.0,15
01,-31.1,133.1,18
01,-31.1,133.2,2
01,-31.1,146.1,14
01,-31.1,146.7,1
01,-31.1,146.8,2
01,-31.1,147.0,2
01,-31.1,147.1,13
01,-31.1,147.2,1
01,-31.1,149.1,8
01,-31.1,149.2,1
01,-31.1,149.5,29
01,-31.1,150.6,3
01,-31.1,151.1,1
01,-31.1,151.4,5
01,-31.1,152.0,2
01,-31.1,152.4,4
01,-31.1,152.8,3
01,-31.0,115.4,3
01,-31.0,115.5,27
01,-31.0,115.6,42
01,-31.0,115.7,12
01,-31.0,118.0,4
01,-31.0,119.5,10
01,-31.0,119.9,3
01,-31.0,120.0,40
01,-31.0,120.1,9
01,-31.0,120.2,8
01,-31.0,120.3,7
01,-31.0,120.4,8
01,-31.0,120.7,2
01,-31.0,123.4,4
01,-31.0,123.6,17
01,-31.0,123.7,44
01,-31.0,123.8,24
01,-31.0,124.1,1
01,-31.0,126.5,1
01,-31.0,132.8,7
01,-31.0,132.9,17
01,-31.0,133.0,29
01,-31.0,133.1,16
01,-31.0,133.2,11
01,-31.0,142.1,1
01,-31.0,146.6,1
01,-31.0,146.7,2
01,-31.0,146.9,5
01,-31.0,148.1,1
01,-31.0,149.2,9
01,-31.0,149.3,49
01,-31.0,149.4,7
01,-31.0,150.3,4
01,-31.0,151.6,1
01,-31.0,151.8,1
01,-31.0,151.9,4
01,-31.0,152.0,5
01,-31.0,152.4,2
01,-31.0,152.8,1
01,-30.9,115.3,1
01,-30.9,115.4,3
01,-30.9,115.5,33
01,-30.9,115.6,3
01,-30.9,119.3,25
01,-30.9,120.0,1
01,-30.9,120.1,17
01,-30.9,120.2,6
01,-30.9,120.5,3
01,-30.9,120.6,19
01,-30.9,120.7,16
01,-30.9,120.8,1
01,-30.9,121.5,189
01,-30.9,123.2,6
01,-30.9,123.3,24
01,-30.9,123.4,23
01,-30.9,123.5,57
01,-30.9,123.6,32
01,-30.9,123.7,31
01,-30.9,123.8,6
01,-30.9,132.7,17
01,-30.9,132.8,6
01,-30.9,132.9,1
01,-30.9,142.1,3
01,-30.9,145.9,1
01,-30.9,146.1,10
01,-30.9,146.8,7
01,-30.9,146.9,9
01,-30.9,147.7,2
01,-30.9,147.8,3
01,-30.9,148.1,1
01,-30.9,148.4,1
01,-30.9,149.2,80
01,-30.9,149.3,85
01,-30.9,149.4,50
01,-30.9,149.5,12
01,-30.9,149.9,1
01,-30.9,150.8,6
01,-30.9,151.0,11
01,-30.9,151.4,2
01,-30.9,152.4,1
01,-30.9,152.5,2
01,-30.9,153.0,3
01,-30.8,115.2,1
01,-30.8,115.3,24
01,-30.8,115.4,34
01,-30.8,119.3,6
01,-30.8,120.1,2
01,-30.8,120.4,3
01,-30.8,120.6,13
01,-30.8,120.7,31
01,-30.8,120.8,1
01,-30.8,122.7,6
01,-30.8,122.8,16
01,-30.8,122.9,9
01,-30.8,123.1,10
01,-30.8,123.2,3
01,-30.8,123.3,88
01,-30.8,123.4,37
01,-30.8,126.3,1
01,-30.8,126.4,8
01,-30.8,132.3,13
01,-30.8,132.4,4
01,-30.8,132.7,2
01,-30.8,132.8,7
01,-30.8,135.7,2
01,-30.8,135.8,3
01,-30.8,146.8,8
01,-30.8,146.9,11
01,-30.8,147.0,2
01,-30.8,147.1,3
01,-30.8,147.7,1
01,-30.8,148.2,2
01,-30.8,148.3,1
01,-30.8,149.2,42
01,-30.8,149.3,86
01,-30.8,149.4,54
01,-30.8,149.5,38
01,-30.8,150.2,2
01,-30.8,150.4,7
01,-30.8,151.0,19
01,-30.8,151.1,7
01,-30.8,152.0,5
01,-30.8,152.4,6
01,-30.8,152.5,3
01,-30.7,115.2,18
01,-30.7,115.3,50
01,-30.7,115.4,8
01,-30.7,115.8,4
01,-30.7,118.5,1
01,-30.7,118.6,2
01,-30.7,118.8,9
01,-30.7,120.2,4
01,-30.7,120.3,7
01,-30.7,120.4,8
01,-30.7,120.5,13
01,-30.7,120.6,7
01,-30.7,120.7,13
01,-30.7,122.8,5
01,-30.7,122.9,12
01,-30.7,123.0,1
01,-30.7,123.1,31
01,-30.7,123.2,51
01,-30.7,123.3,8
01,-30.7,123.4,15
01,-30.7,123.5,1
01,-30.7,123.6,3
01,-30.7,123.7,1
01,-30.7,123.9,1
01,-30.7,125.0,8
01,-30.7,125.1,5
01,-30.7,126.4,1
01,-30.7,135.9,1
01,-30.7,147.5,5
01,-30.7,147.6,18
01,-30.7,148.4,1
01,-30.7,149.2,6
01,-30.7,149.3,34
01,-30.7,149.4,5
01,-30.7,151.4,1
01,-30.7,152.2,2
01,-30.7,152.5,1
01,-30.7,152.6,2
01,-30.6,115.1,2
01,-30.6,115.2,1
01,-30.6,116.0,2
01,-30.6,120.4,23
01,-30.6,120.5,14
01,-30.6,120.6,22
01,-30.6,120.7,5
01,-30.6,123.0,1
01,-30.6,123.1,37
01,-30.6,123.2,16
01,-30.6,124.2,1
01,-30.6,124.3,23
01,-30.6,124.4,2
01,-30.6,125.0,4
01,-30.6,125.1,2
01,-30.6,125.3,4
01,-30.6,126.1,1
01,-30.6,126.4,11
01,-30.6,126.5,1
01,-30.6,126.6,1
01,-30.6,126.7,2
01,-30.6,147.8,1
01,-30.6,148.1,2
01,-30.6,148.2,2
01,-30.6,148.8,1
01,-30.6,149.4,13
01,-30.6,149.6,20
01,-30.6,149.7,1
01,-30.6,149.8,1
01,-30.6,149.9,1
01,-30.6,150.0,1
01,-30.6,150.5,3
01,-30.6,150.6,3
01,-30.6,151.0,2
01,-30.6,152.0,1
01,-30.6,152.2,2
01,-30.6,152.4,2
01,-30.5,115.1,1
01,-30.5,119.8,2
01,-30.5,120.1,8
01,-30.5,120.4,15
01,-30.5,120.5,1
01,-30.5,120.6,37
01,-30.5,120.7,7
01,-30.5,123.1,17
01,-30.5,123.2,11
01,-30.5,123.3,2
01,-30.5,123.4,11
01,-30.5,123.5,1
01,-30.5,124.2,14
01,-30.5,124.3,19
01,-30.5,124.4,1
01,-30.5,125.0,1
01,-30.5,125.1,2
01,-30.5,125.5,4
01,-30.5,126.3,1
01,-30.5,126.4,4
01,-30.5,126.5,11
01,-30.5,126.6,2
01,-30.5,126.7,1
01,-30.5,126.8,2
01,-30.5,141.3,4
01,-30.5,141.4,4
01,-30.5,144.0,2
01,-30.5,148.1,5
01,-30.5,148.3,1
01,-30.5,148.7,6
01,-30.5,148.8,2
01,-30.5,148.9,1
01,-30.5,150.1,1
01,-30.5,150.5,14
01,-30.5,150.6,3
01,-30.5,150.8,8
01,-30.5,150.9,7
01,-30.5,151.0,25
01,-30.5,151.1,11
01,-30.5,151.3,7
01,-30.5,151.4,1
01,-30.5,152.5,3
01,-30.5,152.9,1
01,-30.4,115.6,4
01,-30.4,115.8,1
01,-30.4,115.9,1
01,-30.4,118.4,11
01,-30.4,118.6,3
01,-30.4,120.1,2
01,-30.4,120.3,1
01,-30.4,120.4,17
01,-30.4,120.5,7
01,-30.4,120.6,19
01,-30.4,123.2,1
01,-30.4,123.3,1
01,-30.4,123.4,17
01,-30.4,123.5,19
01,-30.4,124.2,2
01,-30.4,124.3,4
01,-30.4,124.5,18
01,-30.4,124.6,1
01,-30.4,125.7,1
01,-30.4,125.8,4
01,-30.4,126.3,1
01,-30.4,126.4,1
01,-30.4,126.6,3
01,-30.4,129.9,3
01,-30.4,136.9,6
01,-30.4,141.1,2
01,-30.4,141.2,4
01,-30.4,141.3,2
01,-30.4,141.6,7
01,-30.4,141.7,1
01,-30.4,146.9,1
01,-30.4,149.6,1
01,-30.4,150.2,1
01,-30.4,151.0,11
01,-30.4,151.1,1
01,-30.4,151.3,7
01,-30.4,151.4,8
01,-30.4,152.2,5
01,-30.4,152.3,17
01,-30.3,115.4,2
01,-30.3,115.5,1
01,-30.3,115.8,14
01,-30.3,118.3,11
01,-30.3,118.4,8
01,-30.3,118.5,8
01,-30.3,119.7,13
01,-30.3,119.8,30
01,-30.3,119.9,2
01,-30.3,120.1,1
01,-30.3,120.2,11
01,-30.3,120.4,31
01,-30.3,120.5,7
01,-30.3,120.6,14
01,-30.3,121.6,1
01,-30.3,123.4,6
01,-30.3,123.5,11
01,-30.3,124.1,11
01,-30.3,124.2,1
01,-30.3,124.5,6
01,-30.3,124.8,13
01,-30.3,124.9,1
01,-30.3,125.6,10
01,-30.3,125.7,10
01,-30.3,125.8,8
01,-30.3,125.9,1
01,-30.3,129.6,2
01,-30.3,129.7,2
01,-30.3,129.8,2
01,-30.3,130.0,3
01,-30.3,132.6,6
01,-30.3,132.7,1
01,-30.3,140.7,1
01,-30.3,141.3,2
01,-30.3,145.1,1
01,-30.3,147.6,1
01,-30.3,147.7,1
01,-30.3,147.9,3
01,-30.3,148.1,2
01,-30.3,148.6,5
01,-30.3,148.7,3
01,-30.3,148.8,1
01,-30.3,148.9,10
01,-30.3,149.0,1
01,-30.3,149.2,1
01,-30.3,149.3,3
01,-30.3,149.5,7
01,-30.3,149.6,3
01,-30.3,149.7,1
01,-30.3,149.8,2
01,-30.3,150.3,2
01,-30.3,150.8,6
01,-30.3,150.9,60
01,-30.3,151.0,35
01,-30.3,151.1,1
01,-30.3,151.9,1
01,-30.3,152.5,1
01,-30.3,152.6,1
01,-30.2,115.1,5
01,-30.2,115.2,1
01,-30.2,115.3,2
01,-30.2,115.5,6
01,-30.2,118.4,6
01,-30.2,118.5,4
01,-30.2,119.7,1
01,-30.2,119.8,4
01,-30.2,119.9,19
01,-30.2,120.0,13
01,-30.2,120.1,16
01,-30.2,120.2,6
01,-30.2,120.5,4
01,-30.2,120.6,4
01,-30.2,122.1,1
01,-30.2,122.2,2
01,-30.2,122.3,2
01,-30.2,124.0,13
01,-30.2,124.1,33
01,-30.2,124.3,5
01,-30.2,124.5,5
01,-30.2,124.8,2
01,-30.2,124.9,2
01,-30.2,125.5,2
01,-30.2,125.6,4
01,-30.2,125.7,16
01,-30.2,125.8,18
01,-30.2,125.9,2
01,-30.2,126.1,8
01,-30.2,126.2,1
01,-30.2,129.7,3
01,-30.2,140.5,3
01,-30.2,140.6,21
01,-30.2,140.7,5
01,-30.2,141.3,2
01,-30.2,145.4,13
01,-30.2,147.6,1
01,-30.2,147.8,1
01,-30.2,148.7,1
01,-30.2,148.8,2
01,-30.2,148.9,1
01,-30.2,149.0,3
01,-30.2,149.1,6
01,-30.2,149.4,2
01,-30.2,149.5,5
01,-30.2,149.6,7
01,-30.2,149.7,2
01,-30.2,149.8,3
01,-30.2,150.0,1
01,-30.2,150.6,2
01,-30.2,150.8,21
01,-30.2,150.9,53
01,-30.2,151.4,2
01,-30.2,151.9,1
01,-30.2,152.2,1
01,-30.2,152.7,4
01,-30.2,152.8,1
01,-30.2,152.9,6
01,-30.2,153.0,2
01,-30.1,115.0,1
01,-30.1,115.1,32
01,-30.1,115.3,4
01,-30.1,116.1,2
01,-30.1,117.6,1
01,-30.1,117.7,3
01,-30.1,118.4,1
01,-30.1,119.6,2
01,-30.1,119.9,15
01,-30.1,120.0,3
01,-30.1,120.2,2
01,-30.1,120.5,6
01,-30.1,120.7,5
01,-30.1,120.8,25
01,-30.1,122.1,1
01,-30.1,122.2,7
01,-30.1,122.3,5
01,-30.1,122.9,22
01,-30.1,123.1,3
01,-30.1,124.0,1
01,-30.1,124.1,13
01,-30.1,124.2,5
01,-30.1,124.3,2
01,-30.1,125.8,10
01,-30.1,125.9,6
01,-30.1,126.0,8
01,-30.1,126.1,5
01,-30.1,129.6,6
01,-30.1,140.6,8
01,-30.1,140.7,12
01,-30.1,146.8,1
01,-30.1,147.5,1
01,-30.1,147.6,2
01,-30.1,148.0,1
01,-30.1,148.2,1
01,-30.1,148.4,1
01,-30.1,149.2,2
01,-30.1,149.3,5
01,-30.1,149.4,4
01,-30.1,149.9,4
01,-30.1,150.0,22
01,-30.1,150.1,17
01,-30.1,150.2,4
01,-30.1,150.6,3
01,-30.1,150.9,4
01,-30.1,151.2,1
01,-30.1,151.3,7
01,-30.1,151.9,1
01,-30.1,152.4,2
01,-30.1,152.5,3
01,-30.1,152.6,5
01,-30.1,153.0,3
01,-30.0,115.1,33
01,-30.0,115.6,3
01,-30.0,118.1,5
01,-30.0,118.2,13
01,-30.0,119.5,2
01,-30.0,119.6,8
01,-30.0,120.4,9
01,-30.0,120.7,8
01,-30.0,120.8,20
01,-30.0,120.9,6
01,-30.0,121.1,2
01,-30.0,121.7,28
01,-30.0,121.8,7
01,-30.0,121.9,1
01,-30.0,122.9,10
01,-30.0,123.0,5
01,-30.0,124.5,4
01,-30.0,125.8,1
01,-30.0,126.2,1
01,-30.0,140.5,5
01,-30.0,140.6,10
01,-30.0,140.7,1
01,-30.0,140.8,1
01,-30.0,140.9,1
01,-30.0,141.0,3
01,-30.0,145.8,1
01,-30.0,146.4,1
01,-30.0,147.7,1
01,-30.0,148.0,3
01,-30.0,149.0,1
01,-30.0,149.1,5
01,-30.0,149.2,2
01,-30.0,149.3,2
01,-30.0,149.4,2
01,-30.0,149.7,4
01,-30.0,150.0,2
01,-30.0,150.6,3
01,-30.0,150.9,1
01,-30.0,151.0,7
01,-30.0,151.2,2
01,-30.0,151.3,10
01,-30.0,151.4,2
01,-30.0,151.8,1
01,-30.0,151.9,2
01,-30.0,152.0,1
01,-30.0,152.8,7
01,-30.0,152.9,10
01,-29.9,115.2,1
01,-29.9,115.3,4
01,-29.9,117.2,11
01,-29.9,118.2,4
01,-29.9,119.6,4
01,-29.9,120.4,17
01,-29.9,120.8,1
01,-29.9,120.9,7
01,-29.9,121.0,18
01,-29.9,121.1,5
01,-29.9,121.7,1
01,-29.9,122.7,2
01,-29.9,122.8,35
01,-29.9,122.9,40
01,-29.9,123.0,29
01,-29.9,123.1,3
01,-29.9,124.5,7
01,-29.9,126.8,7
01,-29.9,126.9,1
01,-29.9,140.5,8
01,-29.9,140.6,28
01,-29.9,140.7,11
01,-29.9,140.8,8
01,-29.9,147.4,2
01,-29.9,147.5,7
01,-29.9,148.1,4
01,-29.9,148.2,1
01,-29.9,148.5,1
01,-29.9,149.8,3
01,-29.9,150.1,1
01,-29.9,151.1,15
01,-29.9,151.3,1
01,-29.9,151.5,2
01,-29.9,151.8,1
01,-29.9,151.9,1
01,-29.9,152.0,1
01,-29.9,152.9,5
01,-29.9,153.1,2
01,-29.8,115.3,3
01,-29.8,117.2,19
01,-29.8,117.3,8
01,-29.8,118.8,11
01,-29.8,119.6,5
01,-29.8,119.7,13
01,-29.8,119.9,1
01,-29.8,120.8,1
01,-29.8,120.9,3
01,-29.8,122.8,1
01,-29.8,123.1,2
01,-29.8,123.7,1
01,-29.8,124.1,12
01,-29.8,124.2,8
01,-29.8,124.3,13
01,-29.8,126.7,3
01,-29.8,126.8,13
01,-29.8,127.0,3
01,-29.8,140.2,3
01,-29.8,140.3,4
01,-29.8,140.4,15
01,-29.8,140.5,12
01,-29.8,140.6,1
01,-29.8,142.5,2
01,-29.8,142.6,9
01,-29.8,146.1,1
01,-29.8,147.9,1
01,-29.8,148.1,2
01,-29.8,148.2,1
01,-29.8,148.3,1
01,-29.8,148.7,1
01,-29.8,148.9,1
01,-29.8,149.0,2
01,-29.8,149.1,4
01,-29.8,149.2,3
01,-29.8,149.7,1
01,-29.8,149.8,1
01,-29.8,150.2,1
01,-29.8,151.1,5
01,-29.8,151.4,1
01,-29.8,151.5,3
01,-29.8,152.0,1
01,-29.8,152.6,1
01,-29.8,153.1,1
01,-29.7,117.2,14
01,-29.7,118.3,9
01,-29.7,118.4,14
01,-29.7,119.6,5
01,-29.7,119.7,1
01,-29.7,120.8,5
01,-29.7,123.0,2
01,-29.7,123.1,1
01,-29.7,123.4,4
01,-29.7,123.5,1
01,-29.7,123.7,2
01,-29.7,123.8,2
01,-29.7,124.1,9
01,-29.7,124.2,27
01,-29.7,124.3,31
01,-29.7,124.4,1
01,-29.7,124.9,7
01,-29.7,125.6,1
01,-29.7,125.9,8
01,-29.7,126.0,3
01,-29.7,126.6,4
01,-29.7,126.7,7
01,-29.7,126.8,30
01,-29.7,126.9,3
01,-29.7,127.0,2
01,-29.7,130.8,3
01,-29.7,140.2,16
01,-29.7,140.3,13
01,-29.7,140.4,18
01,-29.7,140.5,13
01,-29.7,140.6,4
01,-29.7,140.7,5
01,-29.7,140.9,1
01,-29.7,141.0,1
01,-29.7,145.6,4
01,-29.7,148.4,2
01,-29.7,148.8,1
01,-29.7,148.9,1
01,-29.7,149.0,3
01,-29.7,149.1,1
01,-29.7,149.9,1
01,-29.7,152.2,1
01,-29.7,152.7,2
01,-29.7,153.2,6
01,-29.7,153.3,13
01,-29.6,117.4,6
01,-29.6,118.3,7
01,-29.6,122.8,4
01,-29.6,122.9,17
01,-29.6,123.4,5
01,-29.6,123.6,3
01,-29.6,123.7,2
01,-29.6,123.9,3
01,-29.6,124.1,2
01,-29.6,124.2,13
01,-29.6,124.3,6
01,-29.6,126.0,5
01,-29.6,126.5,2
01,-29.6,126.6,17
01,-29.6,126.7,12
01,-29.6,126.8,30
01,-29.6,126.9,1
01,-29.6,127.2,1
01,-29.6,129.5,1
01,-29.6,140.2,1
01,-29.6,140.3,13
01,-29.6,140.4,4
01,-29.6,140.5,4
01,-29.6,140.6,2
01,-29.6,140.7,5
01,-29.6,140.8,19
01,-29.6,140.9,17
01,-29.6,141.0,7
01,-29.6,143.9,3
01,-29.6,144.0,2
01,-29.6,147.5,1
01,-29.6,148.6,3
01,-29.6,148.7,1
01,-29.6,148.9,1
01,-29.6,149.0,3
01,-29.6,149.3,1
01,-29.6,149.4,5
01,-29.6,149.6,2
01,-29.6,149.9,2
01,-29.6,151.6,14
01,-29.6,151.7,1
01,-29.6,152.4,1
01,-29.6,152.6,1
01,-29.6,152.7,1
01,-29.6,153.2,4
01,-29.5,115.0,3
01,-29.5,115.1,18
01,-29.5,115.5,5
01,-29.5,117.3,2
01,-29.5,117.4,4
01,-29.5,119.3,2
01,-29.5,120.0,3
01,-29.5,120.1,1
01,-29.5,122.9,5
01,-29.5,123.5,28
01,-29.5,123.6,42
01,-29.5,123.7,32
01,-29.5,123.8,18
01,-29.5,124.1,3
01,-29.5,124.2,11
01,-29.5,124.3,1
01,-29.5,124.4,7
01,-29.5,124.5,6
01,-29.5,124.6,5
01,-29.5,125.1,1
01,-29.5,126.0,5
01,-29.5,126.6,1
01,-29.5,126.7,7
01,-29.5,126.8,2
01,-29.5,140.3,3
01,-29.5,140.4,12
01,-29.5,140.5,15
01,-29.5,140.6,6
01,-29.5,140.7,31
01,-29.5,140.8,22
01,-29.5,140.9,22
01,-29.5,141.0,9
01,-29.5,143.9,18
01,-29.5,144.0,2
01,-29.5,148.3,1
01,-29.5,148.4,2
01,-29.5,148.8,1
01,-29.5,149.0,11
01,-29.5,149.4,1
01,-29.5,149.9,1
01,-29.5,150.2,1
01,-29.5,151.6,13
01,-29.5,151.8,3
01,-29.5,152.1,3
01,-29.5,152.6,4
01,-29.5,152.7,1
01,-29.5,153.2,1
01,-29.4,115.0,10
01,-29.4,115.1,21
01,-29.4,115.2,5
01,-29.4,119.1,1
01,-29.4,120.2,4
01,-29.4,120.3,8
01,-29.4,122.9,6
01,-29.4,123.0,14
01,-29.4,123.4,24
01,-29.4,123.5,39
01,-29.4,123.6,2
01,-29.4,123.7,1
01,-29.4,123.8,5
01,-29.4,124.2,16
01,-29.4,124.3,17
01,-29.4,124.4,22
01,-29.4,124.5,9
01,-29.4,125.1,3
01,-29.4,126.4,2
01,-29.4,126.5,1
01,-29.4,126.6,6
01,-29.4,126.7,2
01,-29.4,126.9,4
01,-29.4,127.0,3
01,-29.4,130.1,4
01,-29.4,140.3,3
01,-29.4,140.4,13
01,-29.4,140.5,2
01,-29.4,140.6,30
01,-29.4,140.7,24
01,-29.4,140.8,19
01,-29.4,140.9,10
01,-29.4,141.0,11
01,-29.4,145.0,13
01,-29.4,145.1,19
01,-29.4,146.0,8
01,-29.4,146.2,9
01,-29.4,146.3,1
01,-29.4,148.4,1
01,-29.4,148.6,2
01,-29.4,148.7,1
01,-29.4,148.8,4
01,-29.4,148.9,2
01,-29.4,149.1,1
01,-29.4,149.2,3
01,-29.4,149.3,1
01,-29.4,149.4,2
01,-29.4,149.5,1
01,-29.4,149.6,3
01,-29.4,149.8,2
01,-29.4,149.9,1
01,-29.4,150.4,2
01,-29.4,150.7,2
01,-29.4,150.8,3
01,-29.4,150.9,1
01,-29.4,151.0,1
01,-29.4,151.6,1
01,-29.4,152.0,1
01,-29.4,152.1,31
01,-29.4,152.2,36
01,-29.4,152.3,6
01,-29.4,152.6,5
01,-29.4,152.7,2
01,-29.3,116.0,5
01,-29.3,116.1,2
01,-29.3,117.5,2
01,-29.3,118.6,1
01,-29.3,118.9,2
01,-29.3,120.2,34
01,-29.3,120.3,10
01,-29.3,120.8,3
01,-29.3,120.9,16
01,-29.3,122.7,2
01,-29.3,122.8,1
01,-29.3,122.9,1
01,-29.3,123.3,6
01,-29.3,123.4,37
01,-29.3,123.5,23
01,-29.3,123.6,14
01,-29.3,123.7,3
01,-29.3,124.1,7
01,-29.3,124.2,24
01,-29.3,124.3,50
01,-29.3,124.4,25
01,-29.3,124.5,2
01,-29.3,125.1,4
01,-29.3,126.4,10
01,-29.3,126.5,7
01,-29.3,126.6,5
01,-29.3,128.3,2
01,-29.3,140.4,8
01,-29.3,140.6,1
01,-29.3,140.7,4
01,-29.3,140.9,2
01,-29.3,141.0,8
01,-29.3,144.9,4
01,-29.3,145.0,1
01,-29.3,146.2,6
01,-29.3,146.3,11
01,-29.3,146.5,3
01,-29.3,148.1,2
01,-29.3,148.2,1
01,-29.3,148.5,1
01,-29.3,148.6,1
01,-29.3,148.8,1
01,-29.3,148.9,3
01,-29.3,149.1,7
01,-29.3,149.4,1
01,-29.3,149.5,16
01,-29.3,149.6,2
01,-29.3,149.8,2
01,-29.3,150.2,1
01,-29.3,151.4,1
01,-29.3,152.0,2
01,-29.3,152.1,2
01,-29.3,152.2,2
01,-29.3,152.3,1
01,-29.3,152.6,1
01,-29.3,152.7,5
01,-29.3,153.1,13
01,-29.2,118.4,2
01,-29.2,118.7,3
01,-29.2,118.9,6
01,-29.2,120.1,2
01,-29.2,120.3,16
01,-29.2,120.4,11
01,-29.2,120.8,4
01,-29.2,120.9,19
01,-29.2,122.8,4
01,-29.2,122.9,2
01,-29.2,123.2,40
01,-29.2,123.3,36
01,-29.2,123.4,9
01,-29.2,123.5,15
01,-29.2,123.6,12
01,-29.2,123.7,7
01,-29.2,123.8,13
01,-29.2,123.9,23
01,-29.2,124.2,3
01,-29.2,124.3,42
01,-29.2,124.4,28
01,-29.2,124.5,7
01,-29.2,125.1,4
01,-29.2,125.3,10
01,-29.2,126.4,4
01,-29.2,126.5,9
01,-29.2,126.6,9
01,-29.2,126.7,1
01,-29.2,126.9,1
01,-29.2,127.0,1
01,-29.2,127.1,1
01,-29.2,128.0,1
01,-29.2,129.0,6
01,-29.2,131.2,2
01,-29.2,140.3,5
01,-29.2,140.4,6
01,-29.2,142.9,1
01,-29.2,144.0,3
01,-29.2,144.1,1
01,-29.2,144.9,1
01,-29.2,145.0,1
01,-29.2,146.1,1
01,-29.2,146.4,26
01,-29.2,146.5,10
01,-29.2,148.1,1
01,-29.2,148.6,7
01,-29.2,148.8,16
01,-29.2,148.9,17
01,-29.2,149.0,1
01,-29.2,149.1,6
01,-29.2,149.4,1
01,-29.2,149.5,1
01,-29.2,149.6,9
01,-29.2,149.7,2
01,-29.2,149.9,2
01,-29.2,150.0,3
01,-29.2,150.2,1
01,-29.2,150.8,2
01,-29.2,151.1,3
01,-29.2,152.1,1
01,-29.2,152.6,1
01,-29.2,152.7,4
01,-29.2,152.8,24
01,-29.2,152.9,3
01,-29.2,153.1,1
01,-29.2,153.2,2
01,-29.2,153.3,2
01,-29.1,118.7,6
01,-29.1,120.3,2
01,-29.1,120.6,1
01,-29.1,120.7,13
01,-29.1,120.9,2
01,-29.1,123.0,6
01,-29.1,123.1,40
01,-29.1,123.2,8
01,-29.1,123.3,17
01,-29.1,123.4,17
01,-29.1,123.5,6
01,-29.1,123.6,12
01,-29.1,123.7,4
01,-29.1,123.8,17
01,-29.1,123.9,23
01,-29.1,124.0,3
01,-29.1,124.2,6
01,-29.1,124.3,21
01,-29.1,124.4,1
01,-29.1,124.8,3
01,-29.1,125.3,2
01,-29.1,125.4,1
01,-29.1,125.5,2
01,-29.1,125.6,7
01,-29.1,126.4,6
01,-29.1,126.5,1
01,-29.1,126.6,6
01,-29.1,126.7,1
01,-29.1,128.3,8
01,-29.1,129.4,3
01,-29.1,129.5,1
01,-29.1,130.2,1
01,-29.1,130.3,6
01,-29.1,142.2,4
01,-29.1,142.6,1
01,-29.1,142.9,1
01,-29.1,146.4,3
01,-29.1,146.5,3
01,-29.1,148.3,1
01,-29.1,148.7,4
01,-29.1,148.9,2
01,-29.1,149.1,13
01,-29.1,149.2,5
01,-29.1,149.8,1
01,-29.1,150.0,2
01,-29.1,150.1,1
01,-29.1,150.8,70
01,-29.1,151.1,3
01,-29.1,151.2,1
01,-29.1,151.3,1
01,-29.1,151.5,2
01,-29.1,152.3,1
01,-29.1,152.4,8
01,-29.1,152.5,2
01,-29.1,152.8,1
01,-29.1,152.9,1
01,-29.1,153.0,1
01,-29.1,153.3,1
01,-29.0,115.6,2
01,-29.0,116.3,1
01,-29.0,117.9,1
01,-29.0,119.1,5
01,-29.0,123.0,7
01,-29.0,123.1,71
01,-29.0,123.2,23
01,-29.0,123.3,20
01,-29.0,123.4,32
01,-29.0,123.5,2
01,-29.0,123.6,6
01,-29.0,123.7,18
01,-29.0,123.8,10
01,-29.0,123.9,1
01,-29.0,124.0,19
01,-29.0,124.1,9
01,-29.0,124.2,3
01,-29.0,124.3,5
01,-29.0,124.4,1
01,-29.0,125.0,1
01,-29.0,125.5,4
01,-29.0,125.6,10
01,-29.0,128.2,2
01,-29.0,128.3,6
01,-29.0,128.4,3
01,-29.0,128.8,6
01,-29.0,129.4,5
01,-29.0,129.5,16
01,-29.0,129.7,1
01,-29.0,130.2,4
01,-29.0,130.3,20
01,-29.0,142.6,10
01,-29.0,142.7,1
01,-29.0,148.3,1
01,-29.0,148.5,6
01,-29.0,149.1,8
01,-29.0,149.2,5
01,-29.0,149.3,1
01,-29.0,149.5,3
01,-29.0,150.4,2
01,-29.0,150.6,1
01,-29.0,150.8,4
01,-29.0,151.0,7
01,-29.0,151.4,8
01,-29.0,152.7,2
01,-29.0,152.9,3
01,-29.0,153.2,1
01,-28.9,115.6,5
01,-28.9,119.3,2
01,-28.9,119.8,3
01,-28.9,120.1,2
01,-28.9,120.2,2
01,-28.9,123.0,22
01,-28.9,123.1,45
01,-28.9,123.2,53
01,-28.9,123.3,1
01,-28.9,123.4,2
01,-28.9,123.5,2
01,-28.9,123.6,15
01,-28.9,123.7,12
01,-28.9,123.8,2
01,-28.9,123.9,7
01,-28.9,124.0,2
01,-28.9,124.1,9
01,-28.9,124.2,9
01,-28.9,124.3,7
01,-28.9,124.7,2
01,-28.9,124.8,1
01,-28.9,124.9,5
01,-28.9,125.7,1
01,-28.9,125.8,2
01,-28.9,125.9,8
01,-28.9,126.7,2
01,-28.9,126.9,2
01,-28.9,128.7,4
01,-28.9,128.8,4
01,-28.9,129.5,5
01,-28.9,129.6,7
01,-28.9,130.1,2
01,-28.9,130.2,11
01,-28.9,130.3,3
01,-28.9,141.4,2
01,-28.9,142.6,17
01,-28.9,142.7,7
01,-28.9,143.2,7
01,-28.9,147.9,1
01,-28.9,148.0,2
01,-28.9,148.2,3
01,-28.9,148.3,2
01,-28.9,148.4,3
01,-28.9,148.5,2
01,-28.9,148.6,4
01,-28.9,148.8,5
01,-28.9,148.9,2
01,-28.9,149.1,3
01,-28.9,149.4,1
01,-28.9,149.5,2
01,-28.9,149.6,2
01,-28.9,149.7,5
01,-28.9,150.0,4
01,-28.9,150.1,3
01,-28.9,150.8,9
01,-28.9,150.9,1
01,-28.9,151.0,1
01,-28.9,151.2,2
01,-28.9,151.3,4
01,-28.9,151.4,6
01,-28.9,151.5,2
01,-28.9,151.7,1
01,-28.9,152.0,2
01,-28.9,152.1,3
01,-28.9,152.3,7
01,-28.8,119.4,21
01,-28.8,119.5,8
01,-28.8,119.7,3
01,-28.8,119.8,18
01,-28.8,120.1,3
01,-28.8,120.2,3
01,-28.8,122.9,6
01,-28.8,123.0,17
01,-28.8,123.1,16
01,-28.8,123.2,20
01,-28.8,123.5,6
01,-28.8,123.6,20
01,-28.8,123.7,20
01,-28.8,123.8,4
01,-28.8,123.9,8
01,-28.8,124.0,24
01,-28.8,124.1,17
01,-28.8,124.2,3
01,-28.8,124.6,4
01,-28.8,124.7,3
01,-28.8,124.8,3
01,-28.8,126.7,6
01,-28.8,126.9,2
01,-28.8,127.2,1
01,-28.8,127.3,1
01,-28.8,128.5,8
01,-28.8,128.8,5
01,-28.8,129.4,1
01,-28.8,141.4,14
01,-28.8,141.5,5
01,-28.8,142.3,11
01,-28.8,142.4,2
01,-28.8,142.5,1
01,-28.8,142.6,13
01,-28.8,147.1,2
01,-28.8,147.2,1
01,-28.8,147.7,10
01,-28.8,147.9,6
01,-28.8,148.0,3
01,-28.8,148.1,3
01,-28.8,148.5,5
01,-28.8,148.6,1
01,-28.8,148.7,2
01,-28.8,149.4,10
01,-28.8,149.5,4
01,-28.8,149.6,6
01,-28.8,149.8,2
01,-28.8,150.0,27
01,-28.8,150.1,3
01,-28.8,150.3,5
01,-28.8,150.4,1
01,-28.8,150.8,3
01,-28.8,150.9,1
01,-28.8,151.3,5
01,-28.8,152.9,1
01,-28.7,119.4,16
01,-28.7,119.8,7
01,-28.7,119.9,3
01,-28.7,120.0,4
01,-28.7,121.8,9
01,-28.7,122.7,2
01,-28.7,122.9,7
01,-28.7,123.0,3
01,-28.7,123.1,2
01,-28.7,123.3,2
01,-28.7,123.4,7
01,-28.7,123.5,4
01,-28.7,123.6,2
01,-28.7,123.7,1
01,-28.7,123.9,2
01,-28.7,124.3,3
01,-28.7,124.6,1
01,-28.7,125.0,7
01,-28.7,125.1,14
01,-28.7,125.2,31
01,-28.7,126.0,2
01,-28.7,126.1,3
01,-28.7,126.2,16
01,-28.7,126.3,9
01,-28.7,128.8,11
01,-28.7,128.9,2
01,-28.7,129.0,1
01,-28.7,130.3,1
01,-28.7,130.4,3
01,-28.7,140.0,8
01,-28.7,142.3,2
01,-28.7,142.4,3
01,-28.7,142.5,2
01,-28.7,142.6,17
01,-28.7,142.7,4
01,-28.7,142.8,5
01,-28.7,147.1,16
01,-28.7,147.2,8
01,-28.7,147.3,12
01,-28.7,147.4,65
01,-28.7,147.5,5
01,-28.7,147.6,1
01,-28.7,147.7,7
01,-28.7,148.1,40
01,-28.7,148.2,32
01,-28.7,148.3,2
01,-28.7,148.5,6
01,-28.7,148.6,3
01,-28.7,148.7,6
01,-28.7,148.8,2
01,-28.7,149.1,23
01,-28.7,149.2,3
01,-28.7,149.3,3
01,-28.7,149.4,4
01,-28.7,149.5,10
01,-28.7,149.6,1
01,-28.7,149.7,2
01,-28.7,149.8,2
01,-28.7,149.9,2
01,-28.7,150.0,3
01,-28.7,150.8,21
01,-28.7,151.2,3
01,-28.7,152.0,4
01,-28.7,152.1,2
01,-28.7,152.2,3
01,-28.7,152.5,4
01,-28.7,152.6,3
01,-28.7,152.8,1
01,-28.6,119.5,1
01,-28.6,119.6,2
01,-28.6,119.9,2
01,-28.6,120.0,7
01,-28.6,121.7,1
01,-28.6,121.8,2
01,-28.6,122.9,4
01,-28.6,123.3,7
01,-28.6,123.4,4
01,-28.6,123.5,22
01,-28.6,123.6,58
01,-28.6,123.7,7
01,-28.6,123.8,6
01,-28.6,123.9,2
01,-28.6,124.0,2
01,-28.6,125.1,4
01,-28.6,125.2,32
01,-28.6,125.3,9
01,-28.6,126.0,15
01,-28.6,126.1,19
01,-28.6,126.2,13
01,-28.6,126.3,12
01,-28.6,126.4,1
01,-28.6,127.0,3
01,-28.6,127.4,1
01,-28.6,127.5,3
01,-28.6,127.6,2
01,-28.6,127.7,7
01,-28.6,128.9,3
01,-28.6,129.0,8
01,-28.6,129.2,20
01,-28.6,129.3,27
01,-28.6,130.3,2
01,-28.6,130.4,1
01,-28.6,140.0,5
01,-28.6,142.0,4
01,-28.6,142.5,3
01,-28.6,142.6,2
01,-28.6,142.8,11
01,-28.6,142.9,13
01,-28.6,143.0,2
01,-28.6,143.1,4
01,-28.6,146.3,2
01,-28.6,147.2,6
01,-28.6,147.3,10
01,-28.6,147.4,25
01,-28.6,147.5,1
01,-28.6,147.7,5
01,-28.6,148.0,2
01,-28.6,148.1,3
01,-28.6,148.2,1
01,-28.6,148.3,1
01,-28.6,148.6,4
01,-28.6,148.7,1
01,-28.6,148.8,2
01,-28.6,149.1,1
01,-28.6,149.2,4
01,-28.6,149.3,16
01,-28.6,149.4,4
01,-28.6,149.5,3
01,-28.6,149.6,3
01,-28.6,149.7,1
01,-28.6,149.9,6
01,-28.6,150.3,1
01,-28.6,150.4,5
01,-28.6,150.8,2
01,-28.6,150.9,1
01,-28.6,151.1,1
01,-28.6,151.2,12
01,-28.6,151.3,5
01,-28.6,151.9,1
01,-28.6,152.3,2
01,-28.6,152.4,2
01,-28.6,152.8,1
01,-28.5,119.5,6
01,-28.5,121.8,2
01,-28.5,121.9,18
01,-28.5,122.0,16
01,-28.5,122.1,4
01,-28.5,122.8,1
01,-28.5,123.2,2
01,-28.5,123.4,6
01,-28.5,123.5,8
01,-28.5,123.6,22
01,-28.5,123.8,6
01,-28.5,123.9,6
01,-28.5,124.0,10
01,-28.5,124.8,13
01,-28.5,124.9,3
01,-28.5,125.2,19
01,-28.5,125.3,15
01,-28.5,125.6,3
01,-28.5,125.7,4
01,-28.5,126.0,1
01,-28.5,127.4,1
01,-28.5,127.5,13
01,-28.5,127.6,5
01,-28.5,127.7,18
01,-28.5,128.4,1
01,-28.5,128.5,7
01,-28.5,128.7,2
01,-28.5,128.8,4
01,-28.5,129.0,16
01,-28.5,129.1,48
01,-28.5,129.2,30
01,-28.5,129.3,11
01,-28.5,129.4,1
01,-28.5,129.5,7
01,-28.5,129.8,1
01,-28.5,142.0,16
01,-28.5,142.7,1
01,-28.5,142.8,1
01,-28.5,142.9,2
01,-28.5,147.4,5
01,-28.5,148.0,1
01,-28.5,148.1,3
01,-28.5,148.3,5
01,-28.5,148.6,2
01,-28.5,148.7,3
01,-28.5,148.8,2
01,-28.5,149.0,2
01,-28.5,149.1,3
01,-28.5,149.3,1
01,-28.5,149.4,12
01,-28.5,149.5,2
01,-28.5,149.9,3
01,-28.5,150.0,1
01,-28.5,150.1,1
01,-28.5,150.2,2
01,-28.5,150.4,2
01,-28.5,150.5,3
01,-28.5,150.9,3
01,-28.5,151.0,2
01,-28.5,151.1,5
01,-28.5,151.4,1
01,-28.5,151.5,2
01,-28.5,151.6,5
01,-28.5,151.9,1
01,-28.5,152.0,4
01,-28.5,152.1,2
01,-28.5,152.3,8
01,-28.4,116.0,2
01,-28.4,116.1,4
01,-28.4,119.2,6
01,-28.4,120.5,2
01,-28.4,121.9,1
01,-28.4,122.0,14
01,-28.4,122.3,2
01,-28.4,122.4,4
01,-28.4,122.7,5
01,-28.4,122.9,2
01,-28.4,123.0,13
01,-28.4,123.1,5
01,-28.4,123.6,1
01,-28.4,124.0,11
01,-28.4,124.1,1
01,-28.4,124.3,4
01,-28.4,124.8,12
01,-28.4,125.7,5
01,-28.4,125.9,2
01,-28.4,126.0,2
01,-28.4,126.2,1
01,-28.4,126.3,1
01,-28.4,127.2,10
01,-28.4,127.3,4
01,-28.4,127.4,2
01,-28.4,128.4,6
01,-28.4,128.7,10
01,-28.4,128.8,7
01,-28.4,128.9,13
01,-28.4,129.0,23
01,-28.4,129.1,53
01,-28.4,129.4,2
01,-28.4,129.5,4
01,-28.4,140.5,6
01,-28.4,146.5,17
01,-28.4,147.4,1
01,-28.4,147.5,2
01,-28.4,147.6,14
01,-28.4,148.0,1
01,-28.4,148.1,12
01,-28.4,148.4,1
01,-28.4,148.6,5
01,-28.4,148.7,9
01,-28.4,148.9,2
01,-28.4,149.2,13
01,-28.4,149.3,2
01,-28.4,149.5,3
01,-28.4,149.8,1
01,-28.4,149.9,11
01,-28.4,150.0,5
01,-28.4,150.1,5
01,-28.4,150.3,1
01,-28.4,150.4,1
01,-28.4,150.5,5
01,-28.4,150.6,5
01,-28.4,150.7,9
01,-28.4,151.4,5
01,-28.4,151.5,2
01,-28.4,151.6,2
01,-28.4,151.7,1
01,-28.4,151.8,6
01,-28.4,152.1,4
01,-28.4,152.2,1
01,-28.4,152.3,1
01,-28.4,152.7,1
01,-28.3,114.7,3
01,-28.3,115.4,1
01,-28.3,119.6,6
01,-28.3,122.7,2
01,-28.3,122.8,2
01,-28.3,122.9,7
01,-28.3,123.0,6
01,-28.3,123.1,1
01,-28.3,123.9,1
01,-28.3,124.0,21
01,-28.3,124.8,4
01,-28.3,125.5,1
01,-28.3,125.6,1
01,-28.3,125.7,1
01,-28.3,125.8,1
01,-28.3,125.9,13
01,-28.3,126.0,3
01,-28.3,126.3,4
01,-28.3,128.8,18
01,-28.3,128.9,1
01,-28.3,129.0,1
01,-28.3,129.1,3
01,-28.3,129.2,12
01,-28.3,129.3,2
01,-28.3,129.8,1
01,-28.3,140.5,5
01,-28.3,142.5,7
01,-28.3,142.6,8
01,-28.3,143.9,2
01,-28.3,144.0,7
01,-28.3,146.2,1
01,-28.3,146.5,15
01,-28.3,146.6,2
01,-28.3,146.9,1
01,-28.3,147.0,2
01,-28.3,147.1,1
01,-28.3,147.2,5
01,-28.3,147.3,15
01,-28.3,147.6,20
01,-28.3,148.0,2
01,-28.3,148.1,15
01,-28.3,148.2,52
01,-28.3,148.3,8
01,-28.3,148.4,1
01,-28.3,148.5,2
01,-28.3,148.6,2
01,-28.3,148.7,2
01,-28.3,148.8,1
01,-28.3,149.0,5
01,-28.3,149.2,5
01,-28.3,149.3,6
01,-28.3,149.4,8
01,-28.3,149.7,5
01,-28.3,149.8,14
01,-28.3,149.9,23
01,-28.3,150.0,10
01,-28.3,150.1,3
01,-28.3,150.5,6
01,-28.3,150.6,4
01,-28.3,150.7,4
01,-28.3,151.3,3
01,-28.3,151.4,17
01,-28.3,151.5,1
01,-28.3,151.8,6
01,-28.3,151.9,1
01,-28.3,152.0,4
01,-28.3,153.5,1
01,-28.2,117.1,8
01,-28.2,120.8,2
01,-28.2,122.0,2
01,-28.2,123.0,8
01,-28.2,123.5,1
01,-28.2,123.6,1
01,-28.2,124.0,11
01,-28.2,124.4,1
01,-28.2,124.6,3
01,-28.2,124.7,1
01,-28.2,124.8,12
01,-28.2,124.9,20
01,-28.2,125.0,5
01,-28.2,125.1,2
01,-28.2,125.5,1
01,-28.2,125.6,1
01,-28.2,125.7,3
01,-28.2,126.2,1
01,-28.2,129.0,1
01,-28.2,129.1,16
01,-28.2,129.2,3
01,-28.2,129.3,1
01,-28.2,129.7,13
01,-28.2,129.8,6
01,-28.2,130.0,2
01,-28.2,130.1,3
01,-28.2,130.2,6
01,-28.2,140.8,1
01,-28.2,140.9,8
01,-28.2,142.5,3
01,-28.2,142.6,7
01,-28.2,146.5,19
01,-28.2,147.0,1
01,-28.2,147.2,1
01,-28.2,147.5,4
01,-28.2,147.7,1
01,-28.2,147.9,1
01,-28.2,148.0,26
01,-28.2,148.1,2
01,-28.2,148.2,2
01,-28.2,148.3,4
01,-28.2,148.4,1
01,-28.2,148.9,1
01,-28.2,149.0,1
01,-28.2,149.3,5
01,-28.2,149.4,54
01,-28.2,149.5,16
01,-28.2,149.9,2
01,-28.2,150.0,5
01,-28.2,150.1,12
01,-28.2,150.2,4
01,-28.2,150.4,1
01,-28.2,150.5,1
01,-28.2,150.8,1
01,-28.2,151.4,2
01,-28.2,151.5,3
01,-28.2,151.7,1
01,-28.2,152.4,1
01,-28.2,152.8,1
01,-28.1,116.1,1
01,-28.1,116.8,1
01,-28.1,117.0,14
01,-28.1,119.9,1
01,-28.1,120.0,2
01,-28.1,120.9,10
01,-28.1,121.0,1
01,-28.1,121.1,3
01,-28.1,122.0,3
01,-28.1,122.5,3
01,-28.1,122.6,9
01,-28.1,122.9,2
01,-28.1,123.0,19
01,-28.1,123.1,13
01,-28.1,123.2,9
01,-28.1,123.3,9
01,-28.1,123.6,3
01,-28.1,123.7,6
01,-28.1,123.8,3
01,-28.1,124.2,2
01,-28.1,124.7,6
01,-28.1,124.8,2
01,-28.1,124.9,6
01,-28.1,125.0,1
01,-28.1,125.1,3
01,-28.1,125.2,5
01,-28.1,126.3,13
01,-28.1,126.4,27
01,-28.1,126.8,18
01,-28.1,126.9,19
01,-28.1,128.5,19
01,-28.1,128.6,18
01,-28.1,129.2,1
01,-28.1,129.7,16
01,-28.1,129.9,3
01,-28.1,130.0,15
01,-28.1,130.1,15
01,-28.1,130.2,4
01,-28.1,130.3,2
01,-28.1,140.2,12
01,-28.1,140.9,1
01,-28.1,144.0,19
01,-28.1,144.1,7
01,-28.1,147.1,2
01,-28.1,147.6,2
01,-28.1,147.7,2
01,-28.1,148.1,6
01,-28.1,148.5,1
01,-28.1,148.6,5
01,-28.1,149.0,5
01,-28.1,149.1,24
01,-28.1,149.2,13
01,-28.1,149.3,30
01,-28.1,149.4,34
01,-28.1,149.6,1
01,-28.1,150.2,3
01,-28.1,150.3,1
01,-28.1,150.6,2
01,-28.1,151.0,13
01,-28.1,151.1,2
01,-28.1,151.3,10
01,-28.1,151.4,1
01,-28.1,151.5,2
01,-28.1,151.6,1
01,-28.1,151.8,5
01,-28.1,153.1,2
01,-28.0,119.2,2
01,-28.0,119.6,6
01,-28.0,120.8,4
01,-28.0,120.9,11
01,-28.0,121.0,1
01,-28.0,121.8,1
01,-28.0,122.5,27
01,-28.0,122.6,29
01,-28.0,122.7,6
01,-28.0,122.8,6
01,-28.0,123.0,6
01,-28.0,123.1,22
01,-28.0,123.2,13
01,-28.0,123.3,2
01,-28.0,123.4,4
01,-28.0,123.5,27
01,-28.0,123.6,5
01,-28.0,123.8,33
01,-28.0,123.9,30
01,-28.0,124.0,10
01,-28.0,124.1,3
01,-28.0,124.2,3
01,-28.0,124.3,2
01,-28.0,124.7,9
01,-28.0,125.0,4
01,-28.0,125.1,5
01,-28.0,126.5,2
01,-28.0,126.9,2
01,-28.0,127.0,30
01,-28.0,128.4,1
01,-28.0,128.5,8
01,-28.0,128.6,1
01,-28.0,129.2,11
01,-28.0,129.3,3
01,-28.0,129.5,6
01,-28.0,129.6,4
01,-28.0,129.7,5
01,-28.0,130.0,17
01,-28.0,130.1,14
01,-28.0,130.2,3
01,-28.0,130.3,5
01,-28.0,130.4,12
01,-28.0,131.4,23
01,-28.0,131.5,13
01,-28.0,131.6,2
01,-28.0,139.1,2
01,-28.0,141.7,4
01,-28.0,141.8,17
01,-28.0,141.9,19
01,-28.0,144.0,23
01,-28.0,144.1,3
01,-28.0,145.9,1
01,-28.0,146.0,2
01,-28.0,147.2,3
01,-28.0,147.3,5
01,-28.0,147.5,2
01,-28.0,147.6,7
01,-28.0,147.7,4
01,-28.0,147.8,1
01,-28.0,148.0,1
01,-28.0,148.1,6
01,-28.0,148.2,16
01,-28.0,148.3,11
01,-28.0,148.4,10
01,-28.0,148.7,1
01,-28.0,148.8,4
01,-28.0,148.9,9
01,-28.0,149.1,3
01,-28.0,149.2,7
01,-28.0,149.3,43
01,-28.0,149.4,27
01,-28.0,149.5,3
01,-28.0,149.6,25
01,-28.0,149.7,2
01,-28.0,149.9,1
01,-28.0,150.2,5
01,-28.0,150.4,3
01,-28.0,150.5,3
01,-28.0,150.6,1
01,-28.0,150.9,4
01,-28.0,151.0,7
01,-28.0,151.1,4
01,-28.0,151.2,2
01,-28.0,151.4,4
01,-28.0,151.5,3
01,-28.0,151.7,3
01,-28.0,153.1,1
01,-27.9,119.1,13
01,-27.9,119.4,6
01,-27.9,119.6,4
01,-27.9,120.4,9
01,-27.9,120.9,8
01,-27.9,121.0,7
01,-27.9,121.8,7
01,-27.9,122.5,7
01,-27.9,122.6,22
01,-27.9,122.7,8
01,-27.9,122.8,9
01,-27.9,122.9,5
01,-27.9,123.3,1
01,-27.9,123.4,8
01,-27.9,123.5,4
01,-27.9,123.6,18
01,-27.9,123.7,8
01,-27.9,123.8,36
01,-27.9,123.9,38
01,-27.9,124.0,4
01,-27.9,124.1,2
01,-27.9,124.6,3
01,-27.9,124.7,9
01,-27.9,125.1,20
01,-27.9,125.2,1
01,-27.9,125.3,1
01,-27.9,125.4,6
01,-27.9,126.5,2
01,-27.9,126.6,2
01,-27.9,126.9,3
01,-27.9,128.7,1
01,-27.9,128.8,3
01,-27.9,128.9,2
01,-27.9,129.2,6
01,-27.9,129.3,9
01,-27.9,129.4,9
01,-27.9,129.5,5
01,-27.9,129.6,1
01,-27.9,129.7,7
01,-27.9,129.8,15
01,-27.9,129.9,2
01,-27.9,130.0,21
01,-27.9,130.1,13
01,-27.9,130.3,2
01,-27.9,131.8,3
01,-27.9,132.0,1
01,-27.9,141.7,13
01,-27.9,141.8,4
01,-27.9,141.9,4
01,-27.9,142.0,10
01,-27.9,142.1,2
01,-27.9,144.8,2
01,-27.9,145.2,1
01,-27.9,145.7,1
01,-27.9,146.9,1
01,-27.9,147.1,4
01,-27.9,147.2,4
01,-27.9,147.3,5
01,-27.9,147.5,1
01,-27.9,147.6,9
01,-27.9,147.7,49
01,-27.9,147.8,18
01,-27.9,148.0,16
01,-27.9,148.1,41
01,-27.9,148.2,1
01,-27.9,148.3,11
01,-27.9,148.4,1
01,-27.9,148.8,13
01,-27.9,148.9,193
01,-27.9,149.0,68
01,-27.9,149.1,111
01,-27.9,149.2,13
01,-27.9,149.3,6
01,-27.9,149.4,3
01,-27.9,149.5,2
01,-27.9,149.6,1
01,-27.9,149.7,4
01,-27.9,149.9,1
01,-27.9,150.0,2
01,-27.9,150.3,3
01,-27.9,150.4,3
01,-27.9,150.5,1
01,-27.9,150.7,1
01,-27.9,151.0,2
01,-27.9,151.2,1
01,-27.9,151.3,4
01,-27.9,151.7,1
01,-27.9,152.1,2
01,-27.8,119.4,3
01,-27.8,119.5,8
01,-27.8,119.8,3
01,-27.8,119.9,3
01,-27.8,120.4,5
01,-27.8,122.5,2
01,-27.8,122.6,4
01,-27.8,122.7,27
01,-27.8,122.8,8
01,-27.8,122.9,1
01,-27.8,123.4,4
01,-27.8,123.6,17
01,-27.8,123.7,12
01,-27.8,123.8,39
01,-27.8,123.9,25
01,-27.8,124.0,9
01,-27.8,124.1,1
01,-27.8,124.9,5
01,-27.8,125.1,1
01,-27.8,125.3,7
01,-27.8,126.6,1
01,-27.8,126.9,2
01,-27.8,127.3,6
01,-27.8,128.3,6
01,-27.8,128.6,1
01,-27.8,128.7,8
01,-27.8,128.8,34
01,-27.8,128.9,5
01,-27.8,129.2,3
01,-27.8,129.3,6
01,-27.8,129.4,5
01,-27.8,129.5,18
01,-27.8,129.6,7
01,-27.8,129.7,4
01,-27.8,129.8,10
01,-27.8,130.0,5
01,-27.8,130.1,1
01,-27.8,131.8,9
01,-27.8,141.6,9
01,-27.8,141.7,1
01,-27.8,141.9,3
01,-27.8,142.0,33
01,-27.8,142.1,13
01,-27.8,147.0,1
01,-27.8,147.1,2
01,-27.8,147.2,4
01,-27.8,147.8,13
01,-27.8,148.3,2
01,-27.8,148.4,12
01,-27.8,148.5,3
01,-27.8,148.6,31
01,-27.8,148.7,2
01,-27.8,148.8,2
01,-27.8,148.9,9
01,-27.8,149.0,4
01,-27.8,149.1,24
01,-27.8,149.3,45
01,-27.8,149.4,40
01,-27.8,149.5,12
01,-27.8,149.6,10
01,-27.8,150.5,2
01,-27.8,150.6,1
01,-27.8,151.3,4
01,-27.8,151.7,1
01,-27.8,152.5,7
01,-27.8,152.9,7
01,-27.8,153.1,2
01,-27.7,114.2,1
01,-27.7,115.0,2
01,-27.7,118.8,1
01,-27.7,118.9,1
01,-27.7,119.4,1
01,-27.7,119.5,3
01,-27.7,120.7,2
01,-27.7,120.8,12
01,-27.7,121.2,3
01,-27.7,121.7,27
01,-27.7,121.8,7
01,-27.7,122.4,2
01,-27.7,122.5,19
01,-27.7,122.6,25
01,-27.7,122.7,15
01,-27.7,122.8,2
01,-27.7,122.9,2
01,-27.7,123.4,1
01,-27.7,123.5,13
01,-27.7,123.6,53
01,-27.7,123.7,6
01,-27.7,123.8,10
01,-27.7,123.9,36
01,-27.7,124.0,2
01,-27.7,124.8,2
01,-27.7,124.9,17
01,-27.7,125.1,8
01,-27.7,125.2,4
01,-27.7,126.2,3
01,-27.7,126.3,2
01,-27.7,126.4,4
01,-27.7,126.8,2
01,-27.7,127.1,12
01,-27.7,127.6,10
01,-27.7,127.7,6
01,-27.7,128.8,4
01,-27.7,128.9,3
01,-27.7,129.0,7
01,-27.7,129.6,3
01,-27.7,129.8,2
01,-27.7,139.3,1
01,-27.7,140.1,1
01,-27.7,141.3,2
01,-27.7,141.5,3
01,-27.7,141.6,106
01,-27.7,141.7,66
01,-27.7,141.8,5
01,-27.7,141.9,5
01,-27.7,142.0,5
01,-27.7,142.1,8
01,-27.7,144.3,8
01,-27.7,144.4,7
01,-27.7,147.0,8
01,-27.7,147.1,1
01,-27.7,147.2,4
01,-27.7,147.4,1
01,-27.7,147.7,5
01,-27.7,148.2,9
01,-27.7,148.3,5
01,-27.7,148.4,7
01,-27.7,148.5,1
01,-27.7,149.1,29
01,-27.7,149.2,15
01,-27.7,149.3,3
01,-27.7,149.4,48
01,-27.7,149.5,44
01,-27.7,150.0,11
01,-27.7,150.2,1
01,-27.7,150.4,2
01,-27.7,150.5,5
01,-27.7,150.6,2
01,-27.7,150.8,5
01,-27.7,151.2,1
01,-27.7,151.5,1
01,-27.7,152.6,1
01,-27.7,152.8,4
01,-27.7,152.9,3
01,-27.7,153.4,9
01,-27.6,118.9,9
01,-27.6,119.0,2
01,-27.6,119.3,3
01,-27.6,120.3,3
01,-27.6,120.4,14
01,-27.6,120.5,3
01,-27.6,120.7,1
01,-27.6,120.8,13
01,-27.6,120.9,2
01,-27.6,121.7,1
01,-27.6,121.8,1
01,-27.6,122.4,7
01,-27.6,122.5,16
01,-27.6,122.6,12
01,-27.6,122.7,13
01,-27.6,122.8,4
01,-27.6,122.9,5
01,-27.6,123.0,2
01,-27.6,123.2,2
01,-27.6,123.3,20
01,-27.6,123.4,20
01,-27.6,123.5,28
01,-27.6,123.6,26
01,-27.6,123.7,13
01,-27.6,123.8,18
01,-27.6,123.9,44
01,-27.6,124.0,3
01,-27.6,124.1,1
01,-27.6,124.4,3
01,-27.6,124.5,2
01,-27.6,124.6,2
01,-27.6,125.0,6
01,-27.6,125.1,6
01,-27.6,125.2,1
01,-27.6,125.4,5
01,-27.6,125.5,1
01,-27.6,125.8,6
01,-27.6,125.9,8
01,-27.6,126.0,9
01,-27.6,126.1,5
01,-27.6,126.2,22
01,-27.6,126.3,4
01,-27.6,126.8,2
01,-27.6,126.9,2
01,-27.6,127.4,3
01,-27.6,127.8,2
01,-27.6,127.9,6
01,-27.6,128.0,2
01,-27.6,128.9,22
01,-27.6,129.0,7
01,-27.6,130.0,2
01,-27.6,130.1,3
01,-27.6,136.5,5
01,-27.6,141.4,2
01,-27.6,141.5,49
01,-27.6,141.6,83
01,-27.6,141.7,84
01,-27.6,141.8,33
01,-27.6,141.9,34
01,-27.6,144.3,37
01,-27.6,144.4,7
01,-27.6,146.1,12
01,-27.6,147.2,1
01,-27.6,147.4,1
01,-27.6,147.6,6
01,-27.6,147.7,6
01,-27.6,147.8,21
01,-27.6,148.0,14
01,-27.6,148.1,2
01,-27.6,148.2,5
01,-27.6,148.3,4
01,-27.6,148.7,7
01,-27.6,148.8,6
01,-27.6,148.9,23
01,-27.6,149.0,18
01,-27.6,149.1,20
01,-27.6,149.2,5
01,-27.6,149.3,59
01,-27.6,149.4,2
01,-27.6,149.5,3
01,-27.6,149.6,4
01,-27.6,149.8,7
01,-27.6,149.9,2
01,-27.6,150.0,5
01,-27.6,150.1,2
01,-27.6,150.2,2
01,-27.6,150.3,8
01,-27.6,150.4,2
01,-27.6,150.5,2
01,-27.6,150.8,3
01,-27.6,150.9,1
01,-27.6,151.1,3
01,-27.6,151.2,1
01,-27.6,152.3,1
01,-27.6,152.4,1
01,-27.6,153.4,9
01,-27.6,153.5,3
01,-27.5,116.0,4
01,-27.5,119.2,10
01,-27.5,119.3,5
01,-27.5,120.2,2
01,-27.5,120.3,31
01,-27.5,120.4,22
01,-27.5,120.5,11
01,-27.5,120.8,1
01,-27.5,120.9,8
01,-27.5,121.5,1
01,-27.5,121.6,4
01,-27.5,122.4,17
01,-27.5,122.5,10
01,-27.5,122.6,5
01,-27.5,122.7,6
01,-27.5,122.9,6
01,-27.5,123.3,8
01,-27.5,123.4,15
01,-27.5,123.5,18
01,-27.5,123.6,9
01,-27.5,123.8,8
01,-27.5,123.9,32
01,-27.5,124.0,1
01,-27.5,124.4,11
01,-27.5,124.6,2
01,-27.5,124.7,15
01,-27.5,124.8,3
01,-27.5,125.5,1
01,-27.5,125.7,11
01,-27.5,125.8,5
01,-27.5,126.3,2
01,-27.5,126.4,4
01,-27.5,127.4,2
01,-27.5,127.7,8
01,-27.5,127.8,29
01,-27.5,127.9,3
01,-27.5,128.4,4
01,-27.5,128.7,4
01,-27.5,128.8,16
01,-27.5,129.0,14
01,-27.5,129.1,4
01,-27.5,129.2,8
01,-27.5,129.3,2
01,-27.5,130.1,8
01,-27.5,130.2,5
01,-27.5,141.6,8
01,-27.5,142.6,4
01,-27.5,143.6,1
01,-27.5,143.7,10
01,-27.5,144.3,4
01,-27.5,145.6,2
01,-27.5,147.4,15
01,-27.5,147.5,14
01,-27.5,147.6,23
01,-27.5,147.7,6
01,-27.5,147.8,1
01,-27.5,148.0,1
01,-27.5,148.1,75
01,-27.5,148.2,8
01,-27.5,148.3,3
01,-27.5,148.4,1
01,-27.5,148.5,2
01,-27.5,148.7,1
01,-27.5,148.8,14
01,-27.5,148.9,7
01,-27.5,149.0,10
01,-27.5,149.1,59
01,-27.5,149.2,38
01,-27.5,149.3,36
01,-27.5,149.4,2
01,-27.5,149.5,3
01,-27.5,149.7,2
01,-27.5,149.8,1
01,-27.5,149.9,4
01,-27.5,150.3,8
01,-27.5,150.4,15
01,-27.5,150.5,7
01,-27.5,150.6,1
01,-27.5,150.7,1
01,-27.5,150.9,3
01,-27.5,151.1,1
01,-27.5,152.1,1
01,-27.5,152.2,11
01,-27.5,152.3,2
01,-27.5,152.6,1
01,-27.5,153.4,16
01,-27.5,153.5,21
01,-27.4,114.5,3
01,-27.4,114.6,3
01,-27.4,114.7,2
01,-27.4,119.2,10
01,-27.4,119.3,6
01,-27.4,119.9,3
01,-27.4,120.1,8
01,-27.4,120.4,6
01,-27.4,120.5,2
01,-27.4,121.2,2
01,-27.4,121.9,1
01,-27.4,122.0,7
01,-27.4,122.1,10
01,-27.4,122.2,34
01,-27.4,122.3,6
01,-27.4,122.4,2
01,-27.4,122.5,1
01,-27.4,122.9,20
01,-27.4,123.0,15
01,-27.4,123.2,4
01,-27.4,123.3,8
01,-27.4,123.4,22
01,-27.4,123.5,29
01,-27.4,123.6,18
01,-27.4,123.7,16
01,-27.4,123.8,20
01,-27.4,123.9,18
01,-27.4,124.0,26
01,-27.4,124.5,1
01,-27.4,124.6,3
01,-27.4,124.7,4
01,-27.4,124.8,2
01,-27.4,125.9,5
01,-27.4,126.0,3
01,-27.4,126.1,4
01,-27.4,126.2,1
01,-27.4,126.3,4
01,-27.4,127.8,20
01,-27.4,127.9,10
01,-27.4,129.0,35
01,-27.4,129.1,31
01,-27.4,129.2,17
01,-27.4,129.3,2
01,-27.4,129.4,1
01,-27.4,131.0,2
01,-27.4,145.8,3
01,-27.4,146.7,2
01,-27.4,147.3,3
01,-27.4,147.6,5
01,-27.4,147.7,9
01,-27.4,147.9,3
01,-27.4,148.0,40
01,-27.4,148.1,11
01,-27.4,148.2,23
01,-27.4,148.3,6
01,-27.4,148.5,2
01,-27.4,148.6,1
01,-27.4,148.7,9
01,-27.4,148.8,3
01,-27.4,149.0,1
01,-27.4,149.1,4
01,-27.4,149.2,17
01,-27.4,149.3,12
01,-27.4,149.6,3
01,-27.4,149.7,3
01,-27.4,149.9,4
01,-27.4,150.0,1
01,-27.4,150.5,7
01,-27.4,151.0,1
01,-27.4,151.1,8
01,-27.4,151.6,1
01,-27.4,151.7,1
01,-27.4,152.0,4
01,-27.4,153.4,1
01,-27.4,153.5,3
01,-27.3,114.1,6
01,-27.3,114.2,9
01,-27.3,114.3,11
01,-27.3,114.5,9
01,-27.3,120.0,5
01,-27.3,120.1,18
01,-27.3,120.9,1
01,-27.3,121.1,2
01,-27.3,121.2,32
01,-27.3,121.3,6
01,-27.3,121.4,1
01,-27.3,121.7,6
01,-27.3,121.8,12
01,-27.3,121.9,18
01,-27.3,122.0,16
01,-27.3,122.1,11
01,-27.3,122.2,12
01,-27.3,122.6,2
01,-27.3,122.7,5
01,-27.3,122.8,2
01,-27.3,123.0,3
01,-27.3,123.2,28
01,-27.3,123.3,14
01,-27.3,123.4,17
01,-27.3,123.5,23
01,-27.3,123.6,19
01,-27.3,123.7,14
01,-27.3,123.8,13
01,-27.3,123.9,1
01,-27.3,124.0,4
01,-27.3,124.2,9
01,-27.3,124.3,26
01,-27.3,124.5,3
01,-27.3,124.6,12
01,-27.3,124.7,13
01,-27.3,124.8,15
01,-27.3,124.9,10
01,-27.3,125.0,20
01,-27.3,125.1,1
01,-27.3,125.9,9
01,-27.3,126.0,7
01,-27.3,126.1,4
01,-27.3,127.8,18
01,-27.3,128.1,1
01,-27.3,128.2,13
01,-27.3,128.3,2
01,-27.3,128.6,1
01,-27.3,129.1,1
01,-27.3,129.2,5
01,-27.3,129.3,2
01,-27.3,130.4,4
01,-27.3,130.5,4
01,-27.3,130.7,1
01,-27.3,131.0,4
01,-27.3,144.3,2
01,-27.3,145.8,1
01,-27.3,146.7,1
01,-27.3,147.3,3
01,-27.3,147.4,4
01,-27.3,147.5,2
01,-27.3,148.0,13
01,-27.3,148.1,9
01,-27.3,148.2,8
01,-27.3,148.3,1
01,-27.3,148.4,1
01,-27.3,148.5,3
01,-27.3,148.7,2
01,-27.3,148.8,2
01,-27.3,149.1,1
01,-27.3,149.2,3
01,-27.3,149.7,3
01,-27.3,149.8,4
01,-27.3,149.9,1
01,-27.3,150.0,11
01,-27.3,150.2,1
01,-27.3,150.3,2
01,-27.3,150.6,2
01,-27.3,150.8,5
01,-27.3,150.9,2
01,-27.3,151.0,1
01,-27.3,151.5,3
01,-27.3,151.6,2
01,-27.3,152.1,1
01,-27.3,152.4,2
01,-27.3,152.5,1
01,-27.2,114.0,6
01,-27.2,114.1,13
01,-27.2,114.2,12
01,-27.2,114.3,2
01,-27.2,119.2,1
01,-27.2,120.1,1
01,-27.2,120.7,2
01,-27.2,120.8,6
01,-27.2,120.9,1
01,-27.2,121.1,5
01,-27.2,121.2,7
01,-27.2,121.4,9
01,-27.2,121.5,15
01,-27.2,121.6,5
01,-27.2,121.7,3
01,-27.2,121.8,2
01,-27.2,121.9,33
01,-27.2,122.0,22
01,-27.2,122.1,4
01,-27.2,122.3,2
01,-27.2,122.4,7
01,-27.2,122.5,6
01,-27.2,122.9,1
01,-27.2,123.1,6
01,-27.2,124.2,23
01,-27.2,124.3,23
01,-27.2,124.4,2
01,-27.2,124.5,22
01,-27.2,124.6,16
01,-27.2,124.7,56
01,-27.2,124.8,20
01,-27.2,124.9,10
01,-27.2,125.0,20
01,-27.2,125.1,3
01,-27.2,125.2,3
01,-27.2,125.3,6
01,-27.2,125.4,4
01,-27.2,125.5,14
01,-27.2,125.6,5
01,-27.2,125.9,3
01,-27.2,126.0,21
01,-27.2,127.0,3
01,-27.2,127.2,2
01,-27.2,127.3,4
01,-27.2,127.6,6
01,-27.2,127.8,12
01,-27.2,127.9,13
01,-27.2,128.0,3
01,-27.2,128.2,19
01,-27.2,128.3,8
01,-27.2,128.4,1
01,-27.2,129.1,1
01,-27.2,129.2,6
01,-27.2,129.3,10
01,-27.2,130.0,1
01,-27.2,130.1,6
01,-27.2,130.2,1
01,-27.2,130.7,4
01,-27.2,130.8,38
01,-27.2,130.9,5
01,-27.2,131.0,1
01,-27.2,136.5,4
01,-27.2,136.6,1
01,-27.2,141.3,2
01,-27.2,144.1,9
01,-27.2,144.3,3
01,-27.2,146.9,1
01,-27.2,147.3,1
01,-27.2,147.6,3
01,-27.2,147.7,1
01,-27.2,147.8,11
01,-27.2,148.1,16
01,-27.2,148.2,30
01,-27.2,148.3,7
01,-27.2,148.4,10
01,-27.2,148.5,1
01,-27.2,148.6,1
01,-27.2,148.8,4
01,-27.2,149.1,3
01,-27.2,149.2,4
01,-27.2,149.3,1
01,-27.2,149.4,2
01,-27.2,149.5,1
01,-27.2,149.6,33
01,-27.2,149.7,14
01,-27.2,149.9,2
01,-27.2,150.1,9
01,-27.2,150.2,3
01,-27.2,150.3,4
01,-27.2,150.4,4
01,-27.2,150.5,2
01,-27.2,150.7,1
01,-27.2,150.8,1
01,-27.2,151.1,1
01,-27.2,152.1,1
01,-27.2,152.6,1
01,-27.2,152.9,1
01,-27.2,153.4,5
01,-27.1,114.1,10
01,-27.1,114.2,45
01,-27.1,114.3,11
01,-27.1,114.5,2
01,-27.1,120.3,1
01,-27.1,120.6,8
01,-27.1,120.7,7
01,-27.1,120.8,7
01,-27.1,120.9,3
01,-27.1,121.1,7
01,-27.1,121.2,13
01,-27.1,121.5,8
01,-27.1,121.6,22
01,-27.1,121.7,19
01,-27.1,121.9,10
01,-27.1,122.0,25
01,-27.1,122.1,23
01,-27.1,122.2,26
01,-27.1,122.3,12
01,-27.1,122.4,5
01,-27.1,122.5,4
01,-27.1,122.7,2
01,-27.1,122.8,6
01,-27.1,122.9,1
01,-27.1,124.0,9
01,-27.1,124.5,4
01,-27.1,124.6,10
01,-27.1,124.7,28
01,-27.1,124.8,22
01,-27.1,124.9,49
01,-27.1,125.0,17
01,-27.1,125.2,3
01,-27.1,125.3,2
01,-27.1,125.4,2
01,-27.1,125.5,11
01,-27.1,126.0,3
01,-27.1,126.1,7
01,-27.1,126.7,5
01,-27.1,127.0,3
01,-27.1,127.5,3
01,-27.1,127.6,13
01,-27.1,127.7,6
01,-27.1,129.1,2
01,-27.1,130.0,15
01,-27.1,130.1,2
01,-27.1,130.2,2
01,-27.1,130.6,14
01,-27.1,130.7,7
01,-27.1,130.8,34
01,-27.1,130.9,29
01,-27.1,131.0,18
01,-27.1,131.1,24
01,-27.1,131.6,1
01,-27.1,132.5,3
01,-27.1,132.6,5
01,-27.1,132.7,1
01,-27.1,135.0,4
01,-27.1,135.1,2
01,-27.1,136.5,1
01,-27.1,144.1,17
01,-27.1,144.2,1
01,-27.1,145.1,2
01,-27.1,145.8,19
01,-27.1,147.3,36
01,-27.1,147.5,1
01,-27.1,148.1,1
01,-27.1,148.2,2
01,-27.1,148.3,11
01,-27.1,148.4,9
01,-27.1,148.5,5
01,-27.1,148.6,3
01,-27.1,148.7,2
01,-27.1,148.9,2
01,-27.1,149.0,5
01,-27.1,149.1,6
01,-27.1,149.3,5
01,-27.1,149.4,2
01,-27.1,149.5,2
01,-27.1,149.6,8
01,-27.1,149.7,3
01,-27.1,149.8,24
01,-27.1,150.3,1
01,-27.1,150.7,2
01,-27.1,150.8,3
01,-27.1,150.9,4
01,-27.1,151.0,2
01,-27.1,151.5,3
01,-27.1,152.7,2
01,-27.1,152.8,1
01,-27.1,153.4,18
01,-27.0,114.1,19
01,-27.0,114.2,42
01,-27.0,114.3,58
01,-27.0,114.4,32
01,-27.0,120.2,3
01,-27.0,120.3,2
01,-27.0,120.6,7
01,-27.0,120.7,4
01,-27.0,121.5,3
01,-27.0,121.6,26
01,-27.0,121.7,12
01,-27.0,121.9,16
01,-27.0,122.0,15
01,-27.0,122.1,23
01,-27.0,122.2,34
01,-27.0,122.8,2
01,-27.0,123.0,5
01,-27.0,123.3,1
01,-27.0,124.4,2
01,-27.0,124.5,12
01,-27.0,124.6,14
01,-27.0,124.7,27
01,-27.0,124.8,15
01,-27.0,124.9,29
01,-27.0,125.0,1
01,-27.0,125.4,1
01,-27.0,126.4,2
01,-27.0,127.0,2
01,-27.0,127.2,1
01,-27.0,127.4,12
01,-27.0,127.5,1
01,-27.0,129.0,2
01,-27.0,129.5,3
01,-27.0,129.8,2
01,-27.0,130.0,1
01,-27.0,130.2,2
01,-27.0,130.3,3
01,-27.0,130.4,4
01,-27.0,130.5,10
01,-27.0,130.6,33
01,-27.0,130.7,1
01,-27.0,130.8,4
01,-27.0,130.9,15
01,-27.0,131.0,17
01,-27.0,131.1,28
01,-27.0,132.6,5
01,-27.0,132.8,9
01,-27.0,132.9,13
01,-27.0,134.7,6
01,-27.0,134.8,19
01,-27.0,134.9,50
01,-27.0,135.0,44
01,-27.0,135.1,19
01,-27.0,135.2,11
01,-27.0,139.8,1
01,-27.0,139.9,2
01,-27.0,140.0,18
01,-27.0,140.6,1
01,-27.0,141.3,2
01,-27.0,141.9,5
01,-27.0,144.5,3
01,-27.0,145.8,42
01,-27.0,146.2,5
01,-27.0,147.6,2
01,-27.0,147.7,1
01,-27.0,147.8,2
01,-27.0,148.0,3
01,-27.0,148.1,5
01,-27.0,148.2,2
01,-27.0,148.3,3
01,-27.0,148.4,5
01,-27.0,148.5,2
01,-27.0,148.7,1
01,-27.0,148.8,6
01,-27.0,148.9,7
01,-27.0,149.0,10
01,-27.0,149.2,1
01,-27.0,149.3,2
01,-27.0,149.4,3
01,-27.0,149.5,13
01,-27.0,149.6,7
01,-27.0,149.8,2
01,-27.0,150.0,8
01,-27.0,150.1,3
01,-27.0,150.2,1
01,-27.0,150.4,1
01,-27.0,150.5,1
01,-27.0,150.6,4
01,-27.0,150.9,1
01,-27.0,151.0,5
01,-27.0,151.5,7
01,-27.0,152.8,1
01,-27.0,152.9,1
01,-27.0,153.1,7
01,-27.0,153.2,7
01,-26.9,114.2,18
01,-26.9,114.3,71
01,-26.9,114.4,25
01,-26.9,119.8,4
01,-26.9,119.9,1
01,-26.9,120.0,3
01,-26.9,120.2,11
01,-26.9,121.0,6
01,-26.9,121.1,14
01,-26.9,121.6,6
01,-26.9,121.7,22
01,-26.9,121.9,16
01,-26.9,122.0,17
01,-26.9,122.1,31
01,-26.9,122.2,2
01,-26.9,122.3,13
01,-26.9,122.4,23
01,-26.9,122.5,3
01,-26.9,122.8,6
01,-26.9,122.9,3
01,-26.9,123.0,14
01,-26.9,123.2,7
01,-26.9,123.3,2
01,-26.9,123.4,3
01,-26.9,123.5,1
01,-26.9,124.7,32
01,-26.9,124.8,10
01,-26.9,124.9,7
01,-26.9,125.0,2
01,-26.9,126.4,23
01,-26.9,126.5,18
01,-26.9,126.7,1
01,-26.9,126.8,3
01,-26.9,127.3,3
01,-26.9,127.4,1
01,-26.9,128.9,4
01,-26.9,129.7,6
01,-26.9,129.8,4
01,-26.9,130.1,6
01,-26.9,130.3,3
01,-26.9,130.4,18
01,-26.9,130.5,19
01,-26.9,130.6,22
01,-26.9,130.8,12
01,-26.9,130.9,13
01,-26.9,131.0,16
01,-26.9,131.1,6
01,-26.9,132.0,1
01,-26.9,132.8,2
01,-26.9,132.9,1
01,-26.9,133.9,2
01,-26.9,134.0,3
01,-26.9,134.5,3
01,-26.9,134.6,12
01,-26.9,134.7,3
01,-26.9,134.8,8
01,-26.9,134.9,36
01,-26.9,135.0,18
01,-26.9,135.1,12
01,-26.9,139.8,10
01,-26.9,139.9,10
01,-26.9,140.0,6
01,-26.9,140.6,1
01,-26.9,140.7,7
01,-26.9,141.3,26
01,-26.9,141.4,8
01,-26.9,141.5,4
01,-26.9,141.9,16
01,-26.9,143.5,19
01,-26.9,144.1,1
01,-26.9,145.9,1
01,-26.9,146.9,2
01,-26.9,147.5,5
01,-26.9,148.1,6
01,-26.9,148.2,2
01,-26.9,148.4,2
01,-26.9,148.5,2
01,-26.9,148.7,5
01,-26.9,148.8,3
01,-26.9,148.9,10
01,-26.9,149.0,5
01,-26.9,149.1,11
01,-26.9,149.3,7
01,-26.9,149.7,5
01,-26.9,149.8,12
01,-26.9,149.9,21
01,-26.9,150.0,6
01,-26.9,150.1,2
01,-26.9,150.2,1
01,-26.9,150.5,9
01,-26.9,150.6,2
01,-26.9,150.7,2
01,-26.9,151.3,1
01,-26.9,152.2,2
01,-26.9,152.5,2
01,-26.9,152.9,1
01,-26.9,153.0,1
01,-26.9,153.1,4
01,-26.8,113.7,2
01,-26.8,113.8,8
01,-26.8,114.2,10
01,-26.8,114.3,9
01,-26.8,114.6,10
01,-26.8,116.0,1
01,-26.8,119.3,5
01,-26.8,119.6,1
01,-26.8,119.7,8
01,-26.8,119.8,3
01,-26.8,119.9,12
01,-26.8,120.4,1
01,-26.8,121.1,5
01,-26.8,121.2,1
01,-26.8,121.3,3
01,-26.8,121.8,1
01,-26.8,121.9,19
01,-26.8,122.0,11
01,-26.8,122.2,3
01,-26.8,122.3,6
01,-26.8,122.4,11
01,-26.8,122.5,7
01,-26.8,122.6,1
01,-26.8,122.7,16
01,-26.8,123.2,6
01,-26.8,123.3,1
01,-26.8,123.4,50
01,-26.8,123.5,5
01,-26.8,124.5,7
01,-26.8,125.4,1
01,-26.8,125.5,11
01,-26.8,125.6,3
01,-26.8,125.7,1
01,-26.8,126.1,9
01,-26.8,126.3,10
01,-26.8,126.4,34
01,-26.8,126.5,21
01,-26.8,126.6,12
01,-26.8,126.8,4
01,-26.8,127.1,1
01,-26.8,127.4,6
01,-26.8,128.8,10
01,-26.8,128.9,1
01,-26.8,129.1,1
01,-26.8,129.3,10
01,-26.8,130.0,15
01,-26.8,130.1,4
01,-26.8,130.3,12
01,-26.8,130.4,12
01,-26.8,130.5,2
01,-26.8,130.8,10
01,-26.8,130.9,6
01,-26.8,131.0,14
01,-26.8,131.1,5
01,-26.8,132.0,4
01,-26.8,132.1,1
01,-26.8,134.3,5
01,-26.8,134.4,5
01,-26.8,134.5,2
01,-26.8,134.6,8
01,-26.8,134.7,1
01,-26.8,134.8,5
01,-26.8,134.9,6
01,-26.8,135.1,1
01,-26.8,135.2,3
01,-26.8,139.9,3
01,-26.8,141.9,24
01,-26.8,142.0,5
01,-26.8,144.9,2
01,-26.8,145.0,5
01,-26.8,146.0,1
01,-26.8,147.0,35
01,-26.8,147.2,1
01,-26.8,147.4,12
01,-26.8,147.5,7
01,-26.8,147.6,2
01,-26.8,147.7,6
01,-26.8,147.8,3
01,-26.8,147.9,3
01,-26.8,148.1,9
01,-26.8,148.2,1
01,-26.8,148.6,1
01,-26.8,148.8,6
01,-26.8,149.2,4
01,-26.8,149.3,3
01,-26.8,149.7,7
01,-26.8,149.8,7
01,-26.8,150.2,4
01,-26.8,150.4,1
01,-26.8,150.7,1
01,-26.8,150.9,1
01,-26.8,151.3,1
01,-26.8,151.4,3
01,-26.8,152.1,1
01,-26.8,152.5,1
01,-26.8,152.6,1
01,-26.8,152.7,1
01,-26.8,152.9,1
01,-26.8,153.0,1
01,-26.8,153.1,5
01,-26.7,119.4,3
01,-26.7,119.7,1
01,-26.7,119.9,3
01,-26.7,120.6,3
01,-26.7,120.7,8
01,-26.7,121.1,10
01,-26.7,121.2,6
01,-26.7,121.7,5
01,-26.7,121.8,1
01,-26.7,121.9,4
01,-26.7,122.2,5
01,-26.7,122.3,1
01,-26.7,122.4,4
01,-26.7,122.6,1
01,-26.7,122.7,10
01,-26.7,122.9,4
01,-26.7,123.1,2
01,-26.7,123.2,3
01,-26.7,123.3,6
01,-26.7,123.4,25
01,-26.7,123.5,13
01,-26.7,123.6,2
01,-26.7,123.7,20
01,-26.7,124.1,3
01,-26.7,124.4,2
01,-26.7,124.5,17
01,-26.7,125.7,13
01,-26.7,125.8,1
01,-26.7,125.9,7
01,-26.7,126.0,7
01,-26.7,126.3,3
01,-26.7,126.4,4
01,-26.7,126.5,7
01,-26.7,126.6,3
01,-26.7,126.7,1
01,-26.7,126.9,1
01,-26.7,128.1,1
01,-26.7,128.2,4
01,-26.7,128.8,1
01,-26.7,129.0,1
01,-26.7,129.3,4
01,-26.7,129.5,1
01,-26.7,129.6,3
01,-26.7,130.0,12
01,-26.7,130.1,19
01,-26.7,130.2,24
01,-26.7,130.3,4
01,-26.7,130.4,19
01,-26.7,130.7,9
01,-26.7,130.8,22
01,-26.7,130.9,18
01,-26.7,132.0,2
01,-26.7,132.1,1
01,-26.7,135.1,1
01,-26.7,135.2,18
01,-26.7,139.1,15
01,-26.7,139.2,2
01,-26.7,141.2,3
01,-26.7,141.3,1
01,-26.7,141.4,5
01,-26.7,145.9,1
01,-26.7,146.0,4
01,-26.7,146.7,3
01,-26.7,147.0,8
01,-26.7,147.1,3
01,-26.7,147.2,5
01,-26.7,147.3,23
01,-26.7,147.5,5
01,-26.7,147.6,2
01,-26.7,147.7,44
01,-26.7,147.8,2
01,-26.7,148.0,3
01,-26.7,148.2,1
01,-26.7,148.8,9
01,-26.7,149.1,8
01,-26.7,149.2,2
01,-26.7,149.3,3
01,-26.7,149.4,1
01,-26.7,149.5,2
01,-26.7,149.7,1
01,-26.7,149.9,1
01,-26.7,150.0,2
01,-26.7,150.1,1
01,-26.7,150.5,7
01,-26.7,150.6,1
01,-26.7,151.6,1
01,-26.7,151.9,3
01,-26.7,152.0,1
01,-26.7,152.3,3
01,-26.7,152.7,1
01,-26.7,153.1,1
01,-26.6,114.3,2
01,-26.6,119.4,16
01,-26.6,119.5,6
01,-26.6,119.9,3
01,-26.6,120.0,2
01,-26.6,120.7,3
01,-26.6,121.7,2
01,-26.6,122.9,6
01,-26.6,123.0,2
01,-26.6,123.3,1
01,-26.6,123.6,1
01,-26.6,123.7,11
01,-26.6,124.0,1
01,-26.6,125.3,2
01,-26.6,125.5,1
01,-26.6,126.0,1
01,-26.6,126.1,2
01,-26.6,126.2,2
01,-26.6,126.6,13
01,-26.6,126.7,3
01,-26.6,127.5,4
01,-26.6,127.6,11
01,-26.6,127.7,5
01,-26.6,127.8,5
01,-26.6,128.1,3
01,-26.6,128.2,4
01,-26.6,128.5,2
01,-26.6,128.6,8
01,-26.6,128.7,5
01,-26.6,128.8,5
01,-26.6,129.1,1
01,-26.6,129.2,2
01,-26.6,130.0,2
01,-26.6,130.1,9
01,-26.6,130.2,13
01,-26.6,130.3,1
01,-26.6,130.7,16
01,-26.6,130.8,37
01,-26.6,130.9,2
01,-26.6,132.1,2
01,-26.6,139.1,14
01,-26.6,139.2,20
01,-26.6,141.1,3
01,-26.6,141.2,9
01,-26.6,141.3,6
01,-26.6,141.4,2
01,-26.6,141.5,9
01,-26.6,141.8,1
01,-26.6,145.9,9
01,-26.6,146.0,8
01,-26.6,146.9,3
01,-26.6,147.0,13
01,-26.6,147.1,1
01,-26.6,147.2,9
01,-26.6,147.3,6
01,-26.6,147.4,3
01,-26.6,147.6,1
01,-26.6,147.8,1
01,-26.6,147.9,3
01,-26.6,148.4,5
01,-26.6,148.7,1
01,-26.6,149.0,1
01,-26.6,149.3,4
01,-26.6,149.4,2
01,-26.6,149.6,9
01,-26.6,149.7,1
01,-26.6,150.1,7
01,-26.6,150.3,1
01,-26.6,150.4,1
01,-26.6,150.5,3
01,-26.6,150.6,2
01,-26.6,150.7,2
01,-26.6,150.9,3
01,-26.6,151.1,5
01,-26.6,151.2,6
01,-26.6,151.3,5
01,-26.6,152.0,1
01,-26.5,121.2,2
01,-26.5,121.4,7
01,-26.5,122.9,2
01,-26.5,123.4,5
01,-26.5,123.5,7
01,-26.5,123.7,3
01,-26.5,124.0,1
01,-26.5,124.2,11
01,-26.5,124.4,1
01,-26.5,124.9,6
01,-26.5,126.0,1
01,-26.5,126.1,2
01,-26.5,127.5,9
01,-26.5,127.6,9
01,-26.5,127.7,10
01,-26.5,127.8,30
01,-26.5,127.9,4
01,-26.5,128.0,6
01,-26.5,128.6,3
01,-26.5,128.7,3
01,-26.5,129.0,8
01,-26.5,129.1,7
01,-26.5,129.2,5
01,-26.5,129.3,22
01,-26.5,129.7,5
01,-26.5,129.8,5
01,-26.5,129.9,4
01,-26.5,130.0,4
01,-26.5,130.1,9
01,-26.5,130.2,6
01,-26.5,130.7,4
01,-26.5,132.0,2
01,-26.5,132.1,3
01,-26.5,132.2,2
01,-26.5,141.1,7
01,-26.5,141.2,10
01,-26.5,141.3,9
01,-26.5,141.4,2
01,-26.5,141.8,2
01,-26.5,145.9,1
01,-26.5,146.0,1
01,-26.5,146.2,4
01,-26.5,146.3,6
01,-26.5,147.0,3
01,-26.5,147.3,16
01,-26.5,147.4,3
01,-26.5,147.5,8
01,-26.5,147.6,7
01,-26.5,147.7,17
01,-26.5,147.8,2
01,-26.5,148.2,3
01,-26.5,148.7,4
01,-26.5,149.0,2
01,-26.5,149.1,1
01,-26.5,149.3,2
01,-26.5,149.4,4
01,-26.5,149.5,5
01,-26.5,149.6,1
01,-26.5,149.8,6
01,-26.5,150.2,4
01,-26.5,150.4,5
01,-26.5,150.5,5
01,-26.5,150.6,3
01,-26.5,150.7,48
01,-26.5,150.8,17
01,-26.5,151.1,1
01,-26.5,151.2,2
01,-26.5,151.3,1
01,-26.5,151.6,1
01,-26.5,151.8,1
01,-26.5,152.0,1
01,-26.5,152.2,3
01,-26.5,153.0,2
01,-26.5,153.1,1
01,-26.4,120.5,6
01,-26.4,121.0,1
01,-26.4,121.1,2
01,-26.4,121.2,1
01,-26.4,121.3,1
01,-26.4,122.2,1
01,-26.4,123.4,10
01,-26.4,123.5,18
01,-26.4,123.6,10
01,-26.4,123.7,5
01,-26.4,123.8,3
01,-26.4,124.2,2
01,-26.4,124.3,2
01,-26.4,124.9,6
01,-26.4,125.3,3
01,-26.4,125.8,4
01,-26.4,126.2,3
01,-26.4,126.3,1
01,-26.4,126.9,1
01,-26.4,127.1,1
01,-26.4,127.6,4
01,-26.4,127.7,1
01,-26.4,128.0,5
01,-26.4,128.1,1
01,-26.4,128.2,8
01,-26.4,129.2,14
01,-26.4,129.3,8
01,-26.4,129.4,17
01,-26.4,129.5,7
01,-26.4,129.7,4
01,-26.4,129.8,11
01,-26.4,129.9,10
01,-26.4,130.0,9
01,-26.4,130.1,1
01,-26.4,130.2,2
01,-26.4,130.3,12
01,-26.4,130.4,2
01,-26.4,132.0,2
01,-26.4,132.1,1
01,-26.4,132.2,2
01,-26.4,135.5,1
01,-26.4,138.8,4
01,-26.4,141.2,9
01,-26.4,141.8,3
01,-26.4,142.1,7
01,-26.4,146.1,1
01,-26.4,146.2,5
01,-26.4,146.6,1
01,-26.4,146.9,2
01,-26.4,147.0,5
01,-26.4,147.1,18
01,-26.4,147.2,26
01,-26.4,147.3,5
01,-26.4,147.4,14
01,-26.4,147.5,4
01,-26.4,147.7,15
01,-26.4,147.8,22
01,-26.4,147.9,2
01,-26.4,148.2,8
01,-26.4,148.4,3
01,-26.4,148.6,1
01,-26.4,148.8,3
01,-26.4,149.0,5
01,-26.4,149.1,2
01,-26.4,149.2,2
01,-26.4,149.3,6
01,-26.4,149.4,22
01,-26.4,149.6,21
01,-26.4,149.8,2
01,-26.4,149.9,6
01,-26.4,150.1,4
01,-26.4,150.2,6
01,-26.4,150.3,1
01,-26.4,150.5,10
01,-26.4,150.6,6
01,-26.4,150.7,3
01,-26.4,150.8,7
01,-26.4,151.2,2
01,-26.4,151.3,5
01,-26.4,151.4,1
01,-26.4,151.5,2
01,-26.4,151.6,9
01,-26.4,151.8,6
01,-26.4,152.0,4
01,-26.4,152.2,6
01,-26.4,152.3,3
01,-26.4,152.9,1
01,-26.3,118.0,1
01,-26.3,119.4,1
01,-26.3,119.5,1
01,-26.3,119.7,1
01,-26.3,120.2,1
01,-26.3,120.3,2
01,-26.3,120.4,6
01,-26.3,120.5,2
01,-26.3,120.6,10
01,-26.3,120.7,1
01,-26.3,120.9,8
01,-26.3,121.0,9
01,-26.3,121.1,2
01,-26.3,121.2,5
01,-26.3,121.3,10
01,-26.3,121.4,9
01,-26.3,122.9,5
01,-26.3,123.4,2
01,-26.3,123.6,5
01,-26.3,123.7,8
01,-26.3,123.8,8
01,-26.3,123.9,4
01,-26.3,124.0,1
01,-26.3,125.3,5
01,-26.3,125.4,4
01,-26.3,125.5,2
01,-26.3,125.8,3
01,-26.3,126.0,1
01,-26.3,126.2,3
01,-26.3,126.3,24
01,-26.3,126.7,2
01,-26.3,127.2,7
01,-26.3,127.4,1
01,-26.3,127.7,7
01,-26.3,127.8,32
01,-26.3,127.9,10
01,-26.3,128.0,4
01,-26.3,129.4,9
01,-26.3,129.5,6
01,-26.3,129.7,5
01,-26.3,129.8,21
01,-26.3,129.9,16
01,-26.3,130.0,5
01,-26.3,130.1,10
01,-26.3,130.2,3
01,-26.3,131.9,2
01,-26.3,145.9,3
01,-26.3,146.0,5
01,-26.3,146.1,1
01,-26.3,146.2,1
01,-26.3,146.6,56
01,-26.3,146.7,2
01,-26.3,146.8,7
01,-26.3,146.9,36
01,-26.3,147.0,13
01,-26.3,147.1,3
01,-26.3,147.2,3
01,-26.3,147.3,53
01,-26.3,147.4,2
01,-26.3,147.5,4
01,-26.3,147.7,5
01,-26.3,147.8,12
01,-26.3,147.9,10
01,-26.3,148.1,2
01,-26.3,148.2,4
01,-26.3,148.3,13
01,-26.3,148.4,6
01,-26.3,148.7,2
01,-26.3,148.8,5
01,-26.3,148.9,4
01,-26.3,149.0,12
01,-26.3,149.2,3
01,-26.3,149.3,3
01,-26.3,149.4,1
01,-26.3,149.5,15
01,-26.3,149.6,4
01,-26.3,149.7,3
01,-26.3,149.8,5
01,-26.3,149.9,3
01,-26.3,150.3,5
01,-26.3,150.4,4
01,-26.3,150.5,4
01,-26.3,150.6,10
01,-26.3,150.9,2
01,-26.3,151.0,20
01,-26.3,151.1,1
01,-26.3,151.5,3
01,-26.3,151.6,1
01,-26.3,151.7,1
01,-26.3,151.8,1
01,-26.3,151.9,2
01,-26.3,152.0,1
01,-26.3,152.1,2
01,-26.2,115.8,2
01,-26.2,116.1,1
01,-26.2,116.2,6
01,-26.2,118.1,2
01,-26.2,118.2,3
01,-26.2,119.3,1
01,-26.2,119.4,7
01,-26.2,119.7,1
01,-26.2,119.8,1
01,-26.2,119.9,2
01,-26.2,120.2,1
01,-26.2,120.3,5
01,-26.2,120.6,5
01,-26.2,120.7,2
01,-26.2,121.3,2
01,-26.2,123.5,5
01,-26.2,123.6,11
01,-26.2,123.7,21
01,-26.2,123.8,9
01,-26.2,123.9,7
01,-26.2,124.0,1
01,-26.2,124.5,2
01,-26.2,125.1,1
01,-26.2,125.2,2
01,-26.2,126.2,2
01,-26.2,126.3,3
